57 128
0 -2.086161773333262 -1.1014904533333332 -14.934720239999756 -10.893552346666521 -3.844193626666698 2.710294879999955 -9.808243906666364 0.5858422266666335 -7.822678240000023 -13.382706133333619 9.519567813333477 2.9341649866667296 -1.6191084933333426 13.37173750666618 17.026000106666647 -4.052645639999964 -9.413244453333558 10.274139906666552 -7.986613773333053 -1.9611405333332899 16.507737546666952 -2.6882487066667693 7.517177466666614 10.91782272000011 -7.977832386666605 -5.585670000000121 4.197571999999966 7.388499893333345 -11.019230786666558 7.178232760000138 16.52935593333353 -16.567250346667265 9.320748946666685 -0.4172386933333327 -4.326418853333234 -4.0345180533333265 7.314643199999782 8.761065480000207 -10.596852959999827 7.108683026666491 -17.63223420000036 -2.086213679999925 4.160692226666681 26.26868033333395 11.14569476000008 -14.690893146666799 5.98482311999993 13.703536106666142 -2.762156706666613 21.328476693334007 5.047192826666679 10.435664706666675 17.38365328000061 -13.590363279999577 -20.08153297333339 -5.852240813333388 -17.261312199999665 -21.634516186666943 -5.6043749999999495 -17.993847119999593 19.1554476666671 9.992766573333096 -2.685538439999894 -11.925659226666523 -4.9486177466667955 -10.955959373333073 -20.923302186666476 -12.685846746666995 -26.132797159999893 10.533390440000145 -7.14527043999988 11.920446826666698 -15.965600746667278 -23.31051997333347 -0.6635448266666685 -10.472839799999985 0.7799439066666412 18.06358861333291 13.034988546666545 13.124294466666669 -13.802558706666836 0.3795407466666809 -1.9116836666666404 17.548490759999797 11.69770038666664 -8.102723800000092 1.104298013333346 -6.680961066666735 1.3348970533333073 11.349810639999799 6.03361019999981 -5.231462493333359 -11.815698573333506 8.7737272666664 -1.3547762933333316 2.4708891333333254 18.31161532000005 -9.377524586666606 -0.004001626666649383 -19.089350253333603 -9.925080746666927 14.631322373333482 -13.47067660000004 2.0056943600000245 10.091836453333155 -13.820701573333523 9.803661239999732 4.154220039999869 -18.305991133332988 -1.2332777466666374 -2.051602733333303 -2.784562066666653 -9.442089280000046 11.589003893332928 16.61879082666691 -15.13130126666689 2.551217200000041 2.940433066666759 -11.155216586666434 7.235075053333341 -5.86082278666683 16.267601946666023 21.942863333334145 17.242351746666685 13.64737269333316 18.33558570666679 11.042655559999936 3.1070404666666147
1 0.317269 -0.623046 -0.673893 -0.420839 -0.925436 0.578651 -0.288036 -0.491753 -0.755558 -1.269339 0.928166 -0.306667 0.349591 0.997689 0.46473 -0.637734 -0.774484 -0.110646 0.377229 0.434413 -0.045705 0.399894 -0.458328 0.886919 0.280589 -0.512349 -0.08305 -0.122717 -0.675358 -0.25922 -0.105142 -0.603611 0.503421 -0.475084 -0.235374 -0.590359 -0.69404 0.834406 -0.957463 -0.368234 -0.654623 0.422603 -0.29662 0.293849 0.673501 -0.284048 0.800385 0.384925 0.306964 1.221286 0.658819 0.75747 0.749421 0.216957 -0.460194 0.258692 -0.038822 0.087949 -0.758646 -0.216852 0.775749 0.69767 -0.132925 -0.663384 0.120354 -0.755877 -0.521088 0.057805 -0.551488 0.930061 -0.847129 1.064828 -0.064639 -0.651209 -0.381573 -1.014259 -0.215068 0.931659 0.593433 0.652169 -0.960331 -0.316815 -0.776347 0.633311 0.100423 -0.434178 -0.570105 -0.473411 0.353287 -0.158333 -0.124828 -0.322859 -0.498604 -0.47546 -0.421791 0.542485 0.074473 -0.10267 -0.765401 -0.735175 -0.163684 0.896982 0.336951 -0.657488 0.872324 -0.382515 -0.253759 -0.662535 -0.391611 0.400205 -0.615568 -0.783578 -0.050403 -0.29827 -0.01251 -0.697173 0.08835 0.649327 -0.596466 -0.27672 -0.69372 -0.132846 0.346941 1.011229 0.427905 0.705468 0.916531 0.650963
2 -2.7703128533332992 5.115712066666678 -1.2639476399999827 8.418782866666639 4.760157053333344 -0.2772530800000089 -9.334527520000105 -8.732815266666808 8.97591943999997 0.42349150666668023 3.262824293333304 11.837964639999734 -7.67138815999979 10.843259200000151 5.49912690666656 -0.7759234666666606 1.2178193866666223 8.237296653333386 -21.92082231999964 -3.9132100533333776 26.174120546667563 -16.19053684000016 9.59042095999981 -4.351655279999946 -0.245428079999988 10.736200013333132 19.70990074666623 14.961170146666733 -2.3319240533332826 11.54056025333295 20.03831125333368 -7.988920186666547 -8.306636733333203 -5.651243493333474 1.3943897733333472 2.392585426666716 13.774205720000042 1.4501277999999793 -0.8267896533333295 16.562999840000547 -3.765070839999903 1.5506715333333503 18.617119986666868 25.671563986666893 -4.715370879999888 0.7645674666666533 -5.113221106666609 19.575016373332854 -11.135819360000198 15.362304986666626 -9.784863840000227 3.2037527199999496 4.982503733333387 -24.347275986667004 -21.157107066665905 6.7060058399998335 -13.5425536933334 -27.95922810666709 8.997433106666401 -4.499315520000118 12.45984305333343 -10.20029664000024 17.42181216000027 -7.574642560000077 -20.313921079999584 1.3777411199999736 -14.548540453333318 -14.999324773332761 -21.085858626666177 -4.405548213333169 -7.979045813333181 -0.18008836000002304 -9.681385439999953 -22.63096033333363 0.7741416800000319 1.065697266666659 9.238819519999934 5.773220186666826 -4.699294106666575 3.4609151866666736 -3.064864360000055 15.933072560000122 11.330426453333214 5.382751559999862 1.8663113599999537 0.29582298666667123 10.691411946666353 -5.377882493333388 -12.460079613333129 9.864650506666507 9.991419519999647 3.388425733333327 -8.925625853333054 15.365902013333628 7.685360440000176 -0.5003118533333181 9.623981293333157 -6.92600855999998 6.04354057333323 -12.821528386666468 4.169169746666655 1.4832196666666722 -20.66114007999926 1.6472613333333272 -0.2729257733333265 -5.14554911999996 16.111890693333976 13.139689933333527 -8.041435879999979 2.4694474399999837 -1.1083848933333276 8.32215429333333 -1.740976386666681 16.676436693333493 16.882920173333584 -3.2674490400000455 8.041207240000054 -16.241527720000043 -1.818805453333391 24.150462426666827 3.762835253333354 12.6967222533331 27.268940253332616 5.484902226666526 7.6552167199998715 6.466777373333283 -1.205370960000049 -4.23117438666656
3 9.645862493333036 -12.881362240000026 -8.246636399999966 -2.857236826666635 -20.337400346666357 11.419654026667093 -3.919897186666709 -15.718291159999438 -13.060670133332964 -24.058313066666265 19.53760162666711 -7.311905626666879 9.019870866666457 18.756794946667263 1.83691114666669 -15.137129640000287 -15.141122959999919 -8.071947186666593 8.654615826667023 10.65115173333374 -4.87047312 7.39306483999988 -14.086389466666615 15.787202986666763 11.872646599999864 -7.585615919999939 0.17826543999999916 -4.36494949333327 -12.099045346667106 -9.649791719999772 -6.799076760000095 -6.598500053333502 5.1325113466668295 -13.069470906666483 -3.9891694666668043 -12.526409360000159 -18.01697120000044 15.815865426667097 -18.921440693333714 -10.077230946666887 -7.921714999999926 13.172607440000284 -5.735970866666542 -2.8473301733332423 9.730315719999917 0.8007897333333812 14.9008513866671 6.444077440000117 7.361662439999964 21.436004373333795 10.951909946666364 14.16744577333322 10.557521973333367 7.68219608000012 -4.529021133333336 12.167587080000198 6.171048599999941 7.964507279999966 -13.97504876000024 3.9458203999998487 12.004186813333055 9.935154253333506 1.1941697733332879 -11.835708186666936 2.1397271600000356 -12.007015639999853 -4.065121706666703 7.081937786666728 -3.467566706666675 16.86306782666714 -19.691985373332603 19.75962826666693 5.6867135999998 -7.421888400000155 -8.026931599999994 -19.628488600000328 -4.941290706666534 14.093259226666968 7.458732493333101 9.053885453333272 -17.80411630666686 -5.004655093333274 -16.184470600000022 7.17714350666663 -4.586520466666809 -7.862988386666567 -12.690281773333611 -10.589944533333538 5.601061586666562 -9.086652080000176 -5.229550493333465 -4.1473590799999185 -5.362563480000156 -13.63528249333353 -10.257746533333519 13.50827233333369 -7.601272733333176 2.5979878400000125 -18.492099546666978 -11.126423906666512 2.8799418666666323 15.299119813333753 12.344257106666658 -17.554521159999425 16.817677520000405 -3.9114974133332927 -10.009481746666896 -16.110439640000614 -1.2026758800000037 11.004792919999744 -14.7297786799995 -16.843710493332942 3.9217096533332687 -10.04910362666653 -7.141954453333331 -9.714192306666746 3.7472328800000927 10.813274346666931 -8.710723360000195 -5.559857266666548 -14.032332920000107 -10.267150693333473 2.7111471733333383 17.059635106666956 4.460687146666653 10.286173866666811 16.52754372000022 14.248811293333201
4 4.707685866666679 -1.7832723066666516 -5.050679640000002 3.6406747599999876 -6.804257293333209 3.229095133333365 -9.433477493333205 -15.390857986667282 0.4559591200000003 -10.865440600000058 12.744483386666477 4.3616508266667 -0.728998293333345 16.815142826667103 4.561399760000125 -10.34443183999973 -8.317220613333403 3.04366758666658 -11.515145093333174 1.7605216800000008 16.542294146666254 -7.869146599999956 -1.1726096533332673 6.206429413333272 6.967657360000013 3.624649346666664 13.205816373333457 10.535513880000277 -8.561062293333269 2.7990155599999564 13.634287359999863 -8.520240186666653 -4.614336093333444 -11.268415973333225 -2.3564996666666547 -4.74136684000001 1.7900581466666834 8.359451373333378 -10.529477866666506 6.020117600000023 -8.699683800000052 7.650052813333391 11.32784996000027 18.1984859599996 2.115853440000026 0.9752956799999956 3.8874545733332284 19.850575200000065 -3.8042160533333114 21.67071042666615 -2.5905038400000215 11.53940722666704 10.76694149333355 -13.898691079999882 -16.607667600000394 11.589286586666958 -7.025392146666668 -16.948171573333617 -1.3982304133333296 -1.7230488533333337 15.768482786666569 -1.7347128533333687 13.054763839999625 -11.035862080000237 -13.29902278666673 -6.129820053333527 -12.317073040000144 -7.24438866666653 -18.301224866666637 5.037664373333409 -15.952636853333402 10.150974306666486 -3.979699573333356 -20.916433773333026 -3.2272818933333283 -9.835706306666602 1.0068250666666612 12.285652506666313 1.5983891999999666 7.424141159999894 -13.106774066666343 7.9197330399999455 -0.28662207999999234 7.719659666666768 -2.4463221333333856 -6.7167968533333235 2.5927548799999984 -11.530759560000055 -7.211078386666514 1.211888906666688 3.202662506666611 0.4851783733333256 -6.307185159999816 3.763309213333295 -1.8281778533333386 7.988113906666659 3.8560671066666607 -2.7356073866666755 -5.858697559999934 -17.720834893333436 3.1403236133333294 10.437177479999837 -8.876481626666676 -7.49431466666679 9.12925550666648 -7.618494293333476 5.5562950666666175 1.586150893333334 -6.83230473333351 7.9654598133333065 -6.915358280000107 -3.361907573333321 1.5731775866666546 7.091232426666791 8.193875640000083 -8.567705893333216 9.507248360000238 -6.525417693333339 -4.770474733333402 15.06429687999982 -4.796145973333433 4.561897133333341 21.291102013333695 13.168593586666614 8.481931493333382 10.690972413332974 7.5813024266665145 5.608393346666588
5 -0.121322 0.062339 -1.287799 -1.82324 -0.00553 -0.412383 -0.408543 1.213176 -1.080586 -0.597069 0.190863 -0.315503 0.11432 -0.109299 1.377514 -0.052937 -0.804233 0.722455 0.309936 -0.395344 0.443984 0.418327 0.739023 1.084673 -1.327484 -1.248356 -0.939022 0.085445 -0.716507 0.161355 1.070241 -0.901508 1.437531 0.919326 -0.627317 -0.203793 0.791946 0.239036 -0.476024 -0.082555 -1.59696 -0.782155 -0.504165 1.423285 1.358557 -1.969795 0.548728 0.181834 0.246258 0.46248 0.683704 0.597583 1.301914 -0.211771 -0.651711 -1.58879 -1.476331 -1.00071 -0.830234 -2.134469 1.066585 1.542802 -1.81127 -0.458798 0.852401 -0.959868 -1.296418 -0.60518 -1.632412 0.809505 0.409739 0.450176 -1.489108 -0.853548 0.262928 -0.493218 -0.537475 1.156623 1.765111 0.892978 -0.833571 -0.900863 -0.359499 1.527291 1.329495 -0.843737 0.004253 -0.268654 0.684031 0.892075 0.064765 -0.702994 -0.162092 0.462917 -0.5568 -0.061444 1.771619 -0.448415 0.279017 -1.179709 -1.514637 1.131933 -0.576838 0.81248 0.607624 -1.430398 0.22938 0.227149 -1.63149 -0.668087 0.539932 -0.218154 -1.118939 0.659454 1.044728 -1.293793 -0.123002 1.046871 -0.820123 -0.687331 -0.508831 1.556328 0.567274 1.068697 0.983793 1.582468 0.711209 0.234009
6 12.640772773332824 -16.386107573333767 -14.823799679999876 -31.035973400000042 -15.383697600000481 5.518687106666812 5.407512920000074 8.486722693333586 -25.29296112000071 -20.29816845333377 11.666152039999638 -13.561445799999907 17.774307026666893 -6.949664333333345 10.846240080000328 -5.585152426666785 -17.74392843999983 -11.814425279999673 15.829970173332939 8.64088253333345 0.3492784533333382 7.075247253333383 -3.691258093333189 21.59830089333402 -10.514474199999977 -31.69487262666614 -20.21045770666695 -9.95862794666701 -9.081286159999836 -16.52731773333333 7.851932093333429 -3.019763706666762 24.291485973333774 6.192307959999875 -7.732523426666658 -12.957535386667084 -2.1796208666666708 9.471699853333103 -11.526532746666899 -16.512791773333653 -20.399298693333336 -3.3104897466666503 -15.126649279999624 7.006699560000034 23.06658230666659 -29.10241993333367 22.44621426666714 2.359912093333337 14.69112838666681 4.69940741333342 15.395439093333291 12.841150093333242 12.460915306666747 7.522077973333173 -3.220531906666723 -14.018965439999645 -11.676231080000369 3.275667773333452 -21.931741480000152 -35.067976226667426 14.217459160000212 31.156732533333077 -34.016847906666754 -18.736399760000495 16.843131880000232 -20.005475626666644 -22.760571386667372 9.730502693332975 -17.557398226666837 21.437537266667224 -3.7257198399999836 13.248894693333284 -7.806884333333154 -2.971843026666598 -7.619962426666549 -13.221633533333282 -6.621579773333466 18.091295293333193 29.701430706666915 12.395959066666652 -14.735754893333558 -12.322328453333581 -16.616571240000024 28.110557119999406 15.405564586666308 -8.072793693333153 -10.145126533333624 -5.226716853333439 14.671054613332997 5.305274226666781 -8.407852159999978 -18.638743866667042 6.983288880000009 -8.87820311999999 -16.514675600000174 6.485615613333296 11.781431333333217 5.052695680000064 -11.362543613333617 -16.583462066666524 -15.301433880000378 19.964613759999285 4.661197746666685 -4.692017960000066 17.949242226666765 -21.14172869333293 -9.359626266666814 -10.864046853333399 -20.567951333334012 -3.559067133333274 -6.924994120000042 -12.563004066666865 -17.559546106667035 -0.9195274533333213 3.0058497466666387 -22.995641026667155 -3.5079971200001094 22.155883946667238 -19.998010266667414 -20.71227982666669 -16.95085910666653 9.42933736000019 -1.993758413333299 19.56029202666623 9.481600053333336 30.535664640000764 15.113034493333114 17.95279906666643
7 0.48263 -0.238392 -0.228263 0.748607 -0.72608 0.516411 -0.763787 -1.839477 0.305186 -0.849516 1.011162 0.169372 -0.038912 1.49944 -0.048245 -1.041686 -0.691296 0.134273 -0.61121 0.323757 0.741813 -0.280765 -0.658836 0.371737 1.264989 0.425849 1.020597 0.821648 -0.574808 -0.050538 0.620624 -0.412074 -0.824434 -1.3815 -0.103971 -0.605641 -0.453809 0.671571 -0.885053 0.175248 -0.422866 0.91324 0.666014 0.703757 0.036874 0.778885 0.38374 1.497535 -0.001398 1.544244 -0.160699 1.024576 0.666372 -0.684175 -0.799038 1.62083 0.025637 -0.631668 -0.176426 0.81908 0.874184 -0.43071 1.524625 -0.631315 -1.132846 -0.641025 -0.273715 -0.239257 -0.637754 0.26792 -1.32988 1.043975 0.433396 -1.242804 -0.419491 -1.025601 -0.079685 0.818352 -0.186625 0.438117 -1.082551 0.554765 -0.258803 -0.004526 -0.888647 -0.537768 -0.028162 -0.755031 -0.610707 -0.536072 0.029281 0.268969 -0.486986 -0.273729 -0.088698 0.873394 -0.312041 0.10286 -0.820374 -1.078742 0.512357 0.808816 -0.162761 -1.10393 0.703182 -0.391934 0.071017 -0.2465 0.002624 0.941572 -0.780681 -0.587568 0.746695 -0.079839 0.075382 -0.341582 0.687523 -0.738896 -0.048956 1.184443 -0.2794 -0.384298 1.101179 0.875486 0.342447 0.277083 0.443323 0.439019
8 -0.683097 0.522199 -1.588897 -1.658588 0.243719 -0.549345 -0.818312 1.341276 -0.843717 -0.437184 0.00101 -0.132478 -0.392069 0.287932 1.660852 -0.016007 -0.744484 1.509504 0.168722 -0.762374 0.216648 0.727913 0.979535 1.067126 -1.457015 -0.90385 -0.891093 0.312054 -0.84656 0.691338 0.914291 -1.377888 1.406238 1.032411 -0.658989 -0.029684 0.814639 0.231193 -0.501907 0.237911 -1.782834 -0.942166 -0.546763 1.478489 1.407783 -1.789511 0.175281 0.001609 0.096027 0.646887 0.803371 0.605862 1.616427 -0.23246 -0.687513 -1.733644 -1.490873 -1.182713 -0.739467 -1.623512 1.002142 1.347124 -1.525035 -0.011405 0.858282 -0.943167 -0.916483 -1.02671 -1.460281 0.717354 0.722279 0.59064 -1.625892 -0.981957 0.546674 -0.615113 -0.705752 1.20515 1.648089 0.96065 -0.915298 -1.178425 -0.289493 1.18869 1.272927 -1.05451 0.085814 -0.128866 0.836054 0.873582 0.258743 -0.438141 -0.63635 0.696416 -0.317076 -0.171132 1.98722 -0.804842 0.527267 -1.041435 -1.803099 1.210937 -0.616302 1.070071 0.493119 -1.270719 0.435607 0.373605 -1.65617 -0.812055 0.812235 -0.224554 -0.880005 0.654896 1.159379 -1.086737 -0.278958 1.008844 -0.514971 -0.530778 -0.275929 1.658005 0.63736 1.063254 1.080585 1.105169 0.753412 -0.162647
9 2.4248133733333894 10.680204280000217 -7.172848173333232 1.0678081999999316 1.8930245066666216 -11.82710554666648 -19.422472293332863 -15.504035600000167 3.9622928133333453 -1.0631270266666384 7.175392186666775 -2.5864451333333958 -4.02079279999992 15.776659173332805 3.9626612799999914 -19.965390080000454 -14.152137520000286 11.675029800000383 -1.001359493333373 -9.163262919999985 1.6101529200000204 3.626708493333371 -5.997582586666832 5.240199333333403 12.810236946666292 8.172415226666395 6.969961760000081 15.174262693333077 -12.227527706666962 -0.5028220933333423 15.45772245333323 -3.7048744266666622 -10.178273639999798 -9.68912378666639 -12.155228959999926 -5.555285626666643 3.212856866666631 -1.8789861066667086 -11.76658817333302 -0.17664488000000583 -13.50679121333354 6.698669373333218 2.232215239999946 11.030901399999799 6.350070106666471 4.3895048933332745 -1.6869364133332971 14.200968453333129 2.3639978400000135 8.615684519999919 -4.531428453333334 10.862513040000238 16.010486626666644 -3.1697194533333413 -0.4892517199999877 10.10761958666639 -9.073382213333353 -11.956512559999856 -4.521791306666617 13.741036840000405 11.969817626666234 -2.3537678666665824 11.582722693333533 5.955992720000029 -2.1016989199999148 -8.83717482666676 9.993235146666715 -7.641109120000108 -6.5865736133332575 -5.121568759999926 -4.93065689333318 4.606284573333493 -4.0507937999999495 -11.19439929333366 8.252974146666912 -11.239571120000353 -17.341705000000196 9.516601773333532 8.832037786666529 5.047470706666593 -18.360074546666894 -5.462597506666721 -3.9563342666666874 -4.706965279999927 -12.279155626666464 -21.336576559999884 5.959813160000082 -14.696631733333579 -7.209914666666766 -12.668682240000084 -3.615406186666654 10.172483186666781 4.07564332000001 -3.307921840000005 -8.121093946666692 11.703809680000184 6.046060480000053 4.734047599999913 -2.7777051333333276 -16.095402746667276 -1.7130319199999824 12.91729248000011 0.9144732133332958 -2.180960920000012 3.396358093333353 -16.972699146666898 -7.040319493333391 2.0398509733333166 1.0126679999999832 6.82036550666688 6.665329853333223 -7.086177013333315 15.043835600000063 -4.356726626666766 3.0530809066667235 -5.27745762666671 18.411746253333078 -5.7418967866665644 8.075393866666772 10.263733586666834 -1.9808658666666696 2.6555339333332877 8.868146253333101 10.006835039999869 8.018043746666766 4.1538894400000705 2.0061001866667354 -1.4588045199999808
10 -2.132105946666724 8.35621072000002 -10.747933866666934 -16.105000653333256 5.59710485333348 -12.268470493333588 -7.838131933333245 11.784429680000349 -7.277134879999835 0.41932904000004023 -0.23551169333331834 -2.839676253333297 -1.6023302533332586 -2.917433773333422 11.467511119999834 -3.308881813333259 -8.11191057333321 9.116787306666465 1.0098183333333397 -9.8111813600001 4.012686773333301 2.844484906666752 9.045276893333524 8.494188199999844 -12.833116386666486 -7.324554920000049 -7.002933866666714 3.6070151466665132 -7.998580453333378 2.0361414666666215 13.194943453333035 -6.482744719999898 10.422712853333106 10.777532546666778 -9.129215319999979 0.4920406133333617 12.373434973333476 -2.9457750800000038 -3.5116232000000065 0.37439590666669553 -15.28794285333334 -7.21887966666669 -3.469813973333279 13.623079133333533 11.56673051999962 -18.240420199999775 -0.031551173333336235 1.149440680000024 1.0611716400000057 0.23884677333333335 2.0116510399999785 4.117947906666709 13.28828106666691 -2.7147639466666593 -4.2963256666667355 -15.572411093333011 -15.951317959999933 -13.193433293333472 -5.158935986666832 -16.260799106666305 10.081223906666592 11.509035893333344 -16.253240706667043 1.5345591733333372 9.579480093333492 -5.584359466666665 -6.395226106666548 -7.158771973333265 -14.94420372000018 2.0271635599999964 6.942381600000084 -1.3809201333333359 -16.78649868000018 -7.031989426666569 8.716586266666447 -1.4271911333333156 -9.667718706666637 7.184913586666764 17.35085422666684 5.415582213333302 -7.767153240000287 -9.645547866666885 -0.43696777333331915 11.082928639999707 10.164815573333595 -12.555124093333124 3.920436026666637 -5.759568586666714 3.988171946666788 5.844961320000124 -0.14005343999999575 -2.6207191199999853 3.9163375200000083 7.005412026666423 -7.987248080000053 -0.2513879599999888 17.755344506666937 -2.662530239999945 6.519428279999976 -11.221380626666342 -13.471376333333113 9.93964885333345 -5.561686253333271 12.25142262666696 2.0070574266666825 -15.790924640000071 0.07010706666668193 6.081136080000219 -13.242819600000136 -7.403047666666655 11.616657026666807 0.42010169333331837 -7.42376029333341 7.061090413333102 10.009183453333465 -9.78767681333316 4.328656959999864 7.302014826666891 -2.7544073866666614 -4.3917951866666005 -3.086432280000065 17.069508346666847 6.200612840000157 7.4137615733332005 9.84975215999996 14.198924479999487 3.506880413333273 -1.9430383733332763
11 -6.15134241333334 16.92268774666659 -18.0895307866663 -22.039020973333145 11.45276370666682 -22.17538106666594 -17.970121039999537 15.471173680000021 -7.4268146533330155 2.8169258266665502 -2.3125470133332913 -4.934726359999927 -6.400876639999893 2.759874426666661 18.570380853333212 -9.222846400000204 -13.874089626666553 21.984648200000755 6.433980453333187 -18.542697959999774 -2.018389320000036 11.38461233333373 10.141525680000022 11.142503973332959 -13.175714786666397 -4.473651760000104 -10.717996959999823 9.957408719999956 -14.131242480000207 5.503353213333337 18.396314560000373 -11.372233680000347 10.8252559066669 13.210212959999776 -16.914247839999685 1.1251012533333586 16.125579479999715 -5.442793466666742 -7.421960599999858 0.3001837066666715 -23.877449186667075 -10.388064866666909 -7.982818626666975 17.76533931999957 17.508402800000216 -20.965679053333016 -2.95308633333333 0.24343138666667075 2.4885277599999878 -0.6760204933333711 2.98260429333343 6.014768506666463 23.51684155999941 0.11062150666665985 0.27108156000000927 -21.474481586666506 -22.257815173333192 -17.508280026666835 -8.514790346666489 -11.690465719999876 13.411638213333452 14.33094381333296 -18.45966098666678 10.870367653332938 16.196100280000042 -9.842183359999986 2.8841544000000434 -14.137419946666643 -15.99415425333354 -0.6903599600000037 12.917731746666735 -0.9254746266666692 -23.190701693332663 -9.28836777333334 17.139076173333706 -5.2215440266666215 -22.693523826667406 12.209293240000331 25.761328986665927 9.254548626666956 -15.017506920000226 -20.174838733332827 -1.940075386666672 7.459669173333331 9.26524810666673 -25.22698775999919 6.269663666666765 -9.45565296000033 4.826177813333232 1.7560717866667006 -0.8193035733333409 3.4696755600000415 4.155886999999946 6.7355004533333425 -10.81384285333326 1.609074319999975 27.13458208000086 -3.9721331999999543 10.616288093333685 -15.634197840000196 -22.555940079999555 15.373733226666527 -4.343680119999893 18.85056105333291 0.9559431066666682 -23.974099040000386 -3.542529840000051 7.786857000000182 -14.094588106666803 -9.499161799999921 22.68727966666697 -2.5132254399999594 -1.906976453333348 3.772507666666602 12.249492960000186 -11.831591386666853 8.740975533333035 9.89355841333342 2.5225541866666483 -5.757526946666871 -2.692547466666725 22.36628054666673 4.438584066666797 10.1841714666666 14.847487426666474 13.113801866666275 3.0150912266666596 -6.392804786666816
12 0.62277 -0.628995 -0.319279 0.743127 -1.114083 0.957557 -0.64342 -2.103332 0.163248 -1.246492 1.27662 0.105111 0.136317 1.733251 -0.039738 -1.114638 -0.796071 -0.047144 -0.513066 0.641837 0.712997 -0.219061 -0.920685 0.579949 1.45301 0.223199 0.971475 0.713989 -0.620557 -0.183913 0.428772 -0.509638 -0.736227 -1.64723 -0.001524 -0.803853 -0.821364 0.981065 -1.066088 0.002931 -0.479493 1.060943 0.580704 0.619572 0.128037 0.853805 0.717115 1.642069 0.148083 1.878372 0.063981 1.264564 0.693659 -0.59232 -0.904823 1.883074 0.235551 -0.393305 -0.397923 0.790202 0.938544 -0.272497 1.621787 -0.92873 -1.247759 -0.880622 -0.490478 -0.077881 -0.648282 0.576736 -1.618512 1.455382 0.706629 -1.342758 -0.775567 -1.320454 0.026133 1.027557 -0.196107 0.580779 -1.241896 0.6185 -0.507859 0.167306 -0.942256 -0.441039 -0.25363 -0.741309 -0.490837 -0.602916 -0.045951 0.06843 -0.666323 -0.509639 -0.106311 1.008275 -0.487529 0.096286 -1.169186 -1.150945 0.561099 1.012323 -0.02148 -1.518914 0.989312 -0.28687 0.031791 -0.558823 -0.045954 1.128268 -1.178797 -0.849496 0.728015 -0.247083 -0.056356 -0.471507 0.518976 -0.640004 -0.279768 1.130943 -0.464044 -0.621711 1.08785 1.087058 0.340926 0.318329 0.678037 0.725487
13 -0.337568 -0.066566 -1.255325 -0.997806 -0.249505 0.151936 -0.529118 0.509864 -0.631789 -0.803368 0.339363 -0.011809 -0.195435 0.664664 1.179147 -0.075024 -0.634042 0.943393 0.075495 -0.1554 0.286496 0.512381 0.475972 0.892121 -0.745088 -0.723432 -0.493764 0.292294 -0.636328 0.484535 0.511587 -1.206829 0.960201 0.3358 -0.315414 -0.208804 0.214394 0.650144 -0.584621 0.180705 -1.282194 -0.454176 -0.269609 1.082708 1.040878 -1.073026 0.421398 0.320187 0.123559 1.027146 0.766716 0.72861 1.198559 -0.280274 -0.758772 -0.814547 -0.869893 -0.762765 -0.68155 -1.058536 0.860418 0.935933 -0.735497 -0.422646 0.239546 -0.924311 -0.954492 -0.675575 -1.189849 0.855462 0.076105 0.940135 -0.813015 -1.012138 -0.038599 -0.794025 -0.26867 1.173449 1.025523 0.894992 -0.833612 -0.62653 -0.323094 0.959775 0.798594 -0.550073 -0.112588 -0.087866 0.61134 0.607178 0.22598 -0.425351 -0.887307 0.347722 -0.052989 0.074568 1.21905 -0.671372 -0.005299 -0.89532 -1.166626 1.095046 -0.396783 0.245064 0.677537 -0.758219 0.407096 -0.029856 -1.272746 -0.273055 0.085873 -0.374091 -0.566859 0.380344 0.77749 -0.879777 -0.418364 0.623325 -0.626056 -0.194613 -0.354126 0.939351 0.599963 1.050487 0.829379 0.749618 0.776944 0.177066
14 5.752776239999883 0.036414573333330785 -9.560015266666888 -12.249910440000217 -9.177977626666983 -2.1021975600000165 -6.1577800800001565 -3.995436866666699 -10.788184426666803 -10.158565546666713 8.13222075999999 -10.818628079999902 7.325534773333217 3.46588890666665 4.9269374933335115 -14.497214933333478 -16.784519453333235 0.2720925066666684 10.614929240000077 0.3524343466666738 -6.460911266666567 9.61325034666692 -9.440547546666576 15.082651266666282 3.8007409733333892 -9.187022826666547 -6.902890266666825 -0.5537585466666551 -10.404471493333109 -9.675714813333158 4.173138373333327 -1.263460013333369 5.859817959999949 -3.2680191733334256 -7.476183599999943 -7.038054706666661 -6.497495053333193 1.755726239999971 -11.737177333333058 -12.773800720000343 -13.897339226666498 5.0475223866665635 -10.705801106666838 -0.9379633200000063 11.336626373333418 -7.550428013333535 9.179208586666464 3.3366753733333074 11.02758737333352 5.2317056933334545 6.274918733333298 10.603123920000172 12.389427946666645 10.663434186666356 3.8711790533332677 -0.6853701866666899 -1.4893461333333562 5.250368173333195 -12.497578853333016 -1.0230232799999646 9.389092426666318 12.91524989333357 -7.560058599999995 -0.7040398933333178 10.414150986666913 -11.704458026666432 1.4069382533333537 6.5203811066668775 -0.5369242933333156 7.288646680000044 -4.452642533333493 9.453842426666828 -2.0215211200000405 -0.62201156000002 0.6077507733333298 -13.04293641333345 -15.61018918666662 9.133056719999836 15.977657586666252 6.114791133333274 -14.656751733333003 -13.06595966666696 -13.304096853333277 5.504948040000022 -2.5585119866666712 -16.70040402666703 -5.614266866666547 -9.170895879999696 5.82512211999979 -8.462371333333419 -9.130081493333083 -3.5882241466666462 8.71530077333339 -10.735712173333509 -14.630338906666854 10.527300653333594 1.8602960799999395 7.057089586666658 -8.291420199999957 -10.091281173333654 -6.584510959999968 14.634329120000164 9.866069866666738 -7.154673693333278 10.21144198666666 -12.76399665333309 -14.015117946666633 -8.511801693333352 -1.8379750266666188 0.8395848266666697 -1.7010704933333205 -13.47126061333346 3.0993070666667464 -8.103537360000038 -6.654291880000051 -9.45179794666664 6.656653813333263 12.746083533333042 -2.2936668533332925 -9.222650693333387 -8.403473266666525 -1.9951424266667073 -2.1332517333333176 11.70256337333351 4.6312816400000605 11.39893532000037 8.53760191999984 7.751558773333435
15 0.222297 0.720252 0.053487 0.248146 0.39183 -0.963937 -0.909928 -0.812649 0.326558 0.398551 0.118046 -0.328498 -0.103229 0.460861 -0.272366 -1.053801 -0.628392 0.214352 0.371118 -0.522131 -0.503219 0.26913 -0.567257 -0.101986 0.956799 0.693868 0.262587 0.554018 -0.43327 -0.370079 0.463178 0.419044 -0.842401 -0.492816 -0.743337 -0.198019 0.112191 -0.432058 -0.42041 -0.327353 -0.262501 0.487541 -0.1567 -0.141458 0.100139 0.586754 -0.32345 0.324315 0.281884 -0.314796 -0.44188 0.135617 0.339757 0.310623 0.720945 0.615698 -0.11928 -0.072568 -0.115196 1.360798 0.131625 -0.332526 0.5591 0.784394 0.202623 -0.044785 1.421638 -0.01183 0.438094 -0.708515 0.002096 -0.295411 0.102711 0.204298 0.650813 -0.273195 -1.150152 -0.033814 0.311211 -0.141895 -0.644507 -0.388919 -0.2011 -0.818145 -1.028438 -1.092889 0.361942 -0.721465 -0.423911 -1.141293 -0.429771 0.829083 0.792872 -0.505351 -0.525954 0.593736 -0.12372 0.67122 -0.04836 -0.255869 0.197245 0.244783 0.576806 -0.059345 -0.238338 -0.741212 -0.926467 -0.027108 0.683213 0.39253 0.606312 -0.273032 1.176438 -0.651857 -0.361284 0.175117 1.141784 -0.33362 0.838021 0.218515 -0.019261 -0.288368 -0.217351 0.009312 0.049817 -0.224889 -0.335376 -0.257742
16 0.740169 -1.03517 -0.115716 -0.143276 -0.898623 0.919167 0.359575 -0.777989 -0.394641 -1.007074 0.712762 -0.195578 0.605275 0.400712 -0.240377 -0.343979 -0.441411 -0.799936 0.397078 0.876012 -0.024084 0.044006 -0.663821 0.389993 0.59066 -0.546697 -0.104159 -0.17747 -0.07402 -0.636272 -0.248833 0.028249 0.092172 -0.684048 0.118759 -0.466949 -0.77338 0.808287 -0.502695 -0.507926 0.021544 0.532986 -0.138517 -0.267663 0.192708 0.095126 0.863668 0.441398 0.423335 0.655847 0.348416 0.562415 -0.00878 0.190643 -0.103417 0.691475 0.492001 0.591162 -0.532597 -0.133718 0.273361 0.335115 -0.002886 -0.860806 -0.225889 -0.500848 -0.477996 0.589722 -0.211411 0.760019 -0.826389 0.843599 0.721159 -0.240216 -0.799107 -0.615642 0.115196 0.505142 0.132303 0.275911 -0.377789 0.166859 -0.444166 0.41027 -0.19197 0.181188 -0.54526 -0.182071 0.122004 -0.305023 -0.260834 -0.38402 -0.08941 -0.655157 -0.167244 0.497779 -0.516013 0.212554 -0.919391 -0.281023 0.248923 0.502091 0.473062 -1.078909 0.653173 0.029011 -0.338301 -0.789613 -0.028908 0.539913 -0.859703 -0.578838 -0.002567 -0.456163 -0.455341 -0.311774 -0.278328 0.169051 -0.606945 -0.150221 -0.595826 -0.558422 -0.107775 0.495928 0.052285 0.325923 0.380651 0.84176
17 1.142777 -1.367828 0.187573 0.090788 -1.251309 1.218932 0.663938 -1.269922 -0.41774 -1.144575 0.977439 -0.277267 0.940905 0.238508 -0.558082 -0.448567 -0.494534 -1.375548 0.260027 1.261576 0.26291 -0.311175 -0.97779 0.380413 0.919316 -0.63341 0.147975 -0.262969 0.028926 -0.97086 -0.152576 0.384984 -0.123702 -1.059416 0.295555 -0.650452 -0.956312 0.819796 -0.542675 -0.670166 0.227588 0.848199 0.077059 -0.31718 0.003949 0.312294 1.058052 0.763591 0.497345 0.760451 0.18548 0.655156 -0.281999 0.102042 -0.188847 1.16403 0.654346 0.757751 -0.46493 -0.190788 0.31794 0.21835 0.282487 -1.299886 -0.521868 -0.503683 -0.792466 0.990632 -0.218962 0.799095 -1.274469 0.871021 1.000279 -0.223887 -1.149775 -0.645077 0.39804 0.418208 -0.083703 0.189073 -0.349429 0.595139 -0.53075 0.527537 -0.388074 0.406827 -0.588673 -0.281579 -0.102819 -0.358851 -0.425188 -0.579179 0.170616 -0.899745 -0.240169 0.734231 -0.927923 0.509854 -1.289151 -0.398119 0.689182 0.447599 0.498156 -1.529542 0.769765 0.014396 -0.422845 -0.918567 0.103001 0.787771 -1.36198 -0.628611 -0.026732 -0.445112 -0.618818 -0.396682 -0.059441 0.015364 -0.784221 -0.005419 -0.693405 -0.903743 -0.002854 0.513978 -0.133757 0.565485 0.404872 1.164787
18 1.466419 -1.697693 0.705331 0.529952 -1.355583 1.561747 1.127048 -1.605576 -0.233323 -1.059974 0.966723 -0.232948 1.132754 -0.056751 -1.17022 -0.320442 -0.20151 -2.092155 0.180808 1.6428 0.306665 -0.709055 -1.237046 0.014995 1.234528 -0.527599 0.344116 -0.471813 0.414781 -1.243952 -0.439618 0.875693 -0.455438 -1.301067 0.569673 -0.628823 -1.141348 0.811541 -0.301562 -0.754656 0.880333 1.125645 0.233727 -0.791431 -0.47237 0.728318 1.100645 0.764107 0.493717 0.49907 -0.027487 0.432849 -0.920484 0.146732 -0.013587 1.606845 1.160604 1.16511 -0.240151 0.015292 -0.018069 -0.148316 0.535064 -1.506099 -0.800902 -0.169306 -0.756293 1.398324 0.13109 0.684122 -1.477729 0.689908 1.562186 0.129372 -1.471398 -0.336955 0.819939 -0.003033 -0.606355 -0.13766 0.085981 1.059769 -0.379129 0.302368 -0.665804 0.989729 -0.622979 -0.1677 -0.318986 -0.49322 -0.522186 -0.645534 0.404323 -1.102511 -0.128431 0.745072 -1.574383 0.787573 -1.440185 -0.033143 1.286947 0.033956 0.683379 -1.89376 0.615109 0.459317 -0.493156 -1.041638 0.495786 1.017375 -1.753156 -0.485559 0.044791 -0.571335 -0.920186 -0.058451 -0.152773 -0.292626 -0.770242 0.099485 -0.651224 -1.37087 -0.22263 0.124288 -0.495163 0.330516 0.151105 1.323312
19 7.282748079999812 -1.316316573333365 -1.1733348933333112 -3.405241799999961 -3.049321093333389 -3.6967893999999974 -3.4947850933332076 -7.295001079999815 -1.9405863466667084 -4.07720128000002 4.468295479999891 -6.690262106666552 4.840565493333263 4.350426613333385 -3.87053461333335 -11.596418346666503 -9.263881106666648 -4.441242426666623 11.557921720000078 0.4739773866666749 -10.09826097333351 7.095999786666557 -10.50376194666667 3.966498679999931 10.58844491999975 -0.8872491733333346 -4.487423386666662 1.9138064133333876 -4.269496560000023 -10.384964786666522 -2.054200079999945 4.139174066666554 -2.6927874266666 -5.4676265333332426 -6.633845146666573 -3.626061266666748 -6.697750040000182 1.305549813333319 -6.356925706666711 -10.847914106666716 -2.0912747999999706 5.797439879999929 -6.722203079999869 -10.117239106666307 3.6729815733333773 2.2845062266665956 5.310318240000002 0.40702475999999976 8.227023586666702 -2.655935959999904 0.3648596933333343 4.794906000000043 3.6417754666666555 9.777441333333527 9.630438946666748 7.043411573333491 5.142982613333503 8.69211553333318 -7.728488826666881 9.679580453333122 1.8426635200000345 3.2482893599999496 -0.7623600933333393 4.60153973333334 5.368621386666749 -4.98635221333337 12.147969346666954 6.9102263866667 5.672646053333439 0.508869453333336 -2.4970402933333053 3.3597264799999373 7.826873226666882 4.047496653333422 1.3514456000000448 -5.6895633466667865 -13.41883403999976 2.0281116533333816 6.902041853333262 0.43663652000000464 -7.437539360000118 -7.325961320000166 -5.878636586666815 -3.7774134000000434 -8.866630226666782 -9.588412986666818 -3.3779936399998975 -7.146231613333464 0.11372889333333797 -14.26247106666622 -8.111134186666671 3.990581773333223 8.88045991999972 -10.369570466666797 -9.088565999999894 8.063220386666975 -5.225195973333221 7.894047826666521 -6.216821426666578 -2.1236255999999547 0.937716560000007 6.777685920000127 12.48341920000047 -7.814142333333188 4.048072546666658 -3.779442466666635 -14.044182586666846 -8.433128039999902 6.792787053333158 5.226928613333466 2.5099516400000583 -8.452038533333434 10.12712936000024 -12.678518480000266 -10.224321906666606 -0.3936248266666651 4.828185439999913 2.5658583066666574 2.497901359999955 -4.5343978933333595 -5.354653799999923 -6.595014213333446 -9.208213119999835 3.028606413333301 0.9830949199999883 -0.9571553999999768 -0.3785412266666522 4.708310986666636
20 0.81261 -0.840314 0.329503 0.292276 -0.706034 0.765569 0.471942 -0.987954 -0.080265 -0.546419 0.555401 -0.085986 0.578391 0.022948 -0.489737 -0.234838 -0.1919 -0.994186 -0.069371 0.85213 0.391874 -0.496337 -0.578221 0.070417 0.66073 -0.250303 0.37767 -0.103093 0.104305 -0.613914 0.047518 0.400507 -0.289591 -0.769439 0.269592 -0.355067 -0.484462 0.375497 -0.229262 -0.2943 0.328947 0.649244 0.273966 -0.129795 -0.234035 0.356107 0.541666 0.595978 0.20016 0.401437 -0.141768 0.306172 -0.343072 -0.10528 -0.223251 0.927411 0.422954 0.360529 -0.058892 -0.111486 0.172857 -0.152419 0.441134 -0.878773 -0.554824 -0.129992 -0.5451 0.64811 -0.147279 0.300212 -0.894074 0.326545 0.65975 -0.18897 -0.713103 -0.246091 0.405343 0.06435 -0.2804 -0.004586 -0.055865 0.653406 -0.193992 0.283266 -0.345057 0.357334 -0.278021 -0.215762 -0.287936 -0.231889 -0.237941 -0.311104 0.234313 -0.450575 -0.089904 0.447237 -0.7183 0.39831 -0.740725 -0.219475 0.683437 0.074029 0.187746 -1.013654 0.337134 0.095977 -0.174326 -0.421326 0.147981 0.560692 -0.900655 -0.238644 0.004322 -0.148394 -0.332372 -0.143662 0.147114 -0.215681 -0.452442 0.252095 -0.332832 -0.604337 0.157441 0.168385 -0.166478 0.323939 0.103896 0.672891
21 0.885921 -0.713561 0.531406 -0.097058 -0.587346 0.546167 0.906055 -0.300516 -0.401213 -0.226626 0.170787 -0.532827 0.802224 -0.792958 -0.899218 -0.102956 -0.114585 -1.54084 0.80731 0.80925 -0.610428 -0.123491 -0.792889 0.041215 0.389994 -0.564557 -0.462566 -0.791083 0.309468 -1.11318 -0.700798 0.974634 0.080545 -0.241215 0.240789 -0.191815 -0.720339 0.080055 -0.009225 -1.01097 0.710702 0.54445 -0.545597 -1.303782 -0.217272 0.132978 0.563519 -0.29173 0.627954 -0.647164 0.0557 -0.092266 -0.751031 0.983735 0.829293 0.387463 1.034734 1.427095 -0.234165 0.053919 -0.399755 0.196955 -0.525631 -0.436036 0.401737 0.167359 0.161361 1.351369 0.838317 0.266887 -0.288358 -0.082996 0.928998 1.054056 -0.547068 0.121519 0.065912 -0.541365 -0.115739 -0.396748 0.347688 0.044406 -0.441419 -0.03097 -0.411352 0.452904 -0.522185 -0.0415 0.167401 -0.593972 -0.622965 -0.465487 1.025295 -0.951743 -0.51459 0.32801 -1.190457 0.8535 -0.592158 0.477485 0.601235 -0.257672 1.050211 -0.797246 0.13564 0.390904 -0.913378 -0.741229 0.569156 0.235847 -0.670848 -0.31487 -0.099865 -0.733802 -1.098185 0.218763 -0.126114 0.432288 -0.172743 -0.795626 -0.323834 -0.996609 -1.015793 -0.354337 -0.620477 0.12995 -0.088591 0.679201
22 -0.7273710000000266 7.297857800000101 -17.826732693333096 -19.9765759733329 -5.276299199999944 -5.455903226666859 -8.69873839999981 8.32451965333323 -14.481237879999728 -7.576053679999928 2.9691484000000368 -11.211826546667034 2.3358817333332897 0.006411480000001829 15.46962773333349 -9.443422506666387 -18.771834506666973 11.10455763999985 10.694449146666447 -4.043811626666526 -7.992424999999907 12.964623493333805 -0.782234106666666 20.809610386667007 -9.810890533333314 -14.235737000000297 -12.73146911999961 -2.1102189333333183 -14.754012413333914 -4.727724906666747 7.524028973333361 -8.817157893333032 16.150715706666563 5.301017200000128 -9.048710333333451 -2.969210639999955 -1.29328491999998 -0.19779837333332184 -11.948082733333422 -12.109612746666565 -21.246700933333194 -1.796954293333327 -15.453593653333646 3.643927186666678 17.173599600000042 -19.399567146666467 6.756839439999947 -1.2437478133333602 11.193847773333164 3.989383639999928 10.07380730666671 11.991510133333334 20.70659447999953 13.197481480000405 1.5191536533333259 -13.092778853333193 -6.395047733333516 0.6917247333333326 -13.030584079999919 -11.909854586666956 13.053585720000253 19.76531614666677 -18.052050066667107 2.0186413466666306 16.795125773333623 -14.022483733333853 -1.7766082533333254 2.0506097466666438 -3.3819576933333906 10.905093693333166 3.3765319333333896 9.30964288000012 -13.765725866666447 -1.9797452133333588 6.605043973333262 -13.730054533332972 -19.18690348000029 10.437910906666598 22.0302627333341 10.493616573333096 -16.215345639999388 -20.963708026667188 -15.053808186666915 11.34677004000011 5.988092400000125 -21.84010298666689 -7.005455200000044 -7.844890413333489 10.333254186666935 -1.7215107999999708 -6.828838280000025 -6.437014933333468 7.062966973333445 -5.2806331600000505 -16.688250653333967 7.028544106666568 12.145124360000116 1.622145653333321 -0.25831876000000986 -12.483161453333286 -17.7682799333337 16.28999730666664 6.697836560000031 2.382510919999925 10.795759626666797 -14.447257253333069 -9.804566693333102 -4.479558013333442 -12.108274160000162 -7.0499870399998565 4.690018293333277 -14.31092360000037 -5.231067706666539 -3.8353521733333817 -1.840659533333354 -13.587304386666476 4.342946986666703 21.590747293333738 -4.604029213333298 -14.449553799999755 -6.082920133333282 7.464869639999939 -1.4518854000000192 14.03647473333312 7.191689106666633 16.029354839999776 11.0433619200002 4.569558613333409
23 0.448479 0.428776 0.417179 0.606135 0.212119 -0.701216 -0.634599 -1.183391 0.396574 0.378504 0.204504 -0.382233 0.122368 0.410496 -0.717921 -1.052299 -0.500611 -0.346138 0.507858 -0.184326 -0.704489 0.148818 -0.93386 -0.30535 1.36371 0.818028 0.394613 0.315035 -0.236299 -0.668157 0.071597 0.800687 -1.103462 -0.793021 -0.591507 -0.279295 -0.220968 -0.37019 -0.373206 -0.531909 0.169787 0.791514 -0.177387 -0.642258 -0.171694 1.031529 -0.256327 0.265597 0.381672 -0.457518 -0.503221 -0.006221 -0.139365 0.525047 0.97515 1.058654 0.345563 0.415004 -0.060191 1.785486 -0.166525 -0.549989 0.842879 0.697441 0.089833 0.160033 1.676347 0.396039 0.897895 -0.784139 -0.230624 -0.3655 0.621921 0.579783 0.399129 -0.215098 -0.965758 -0.302032 -0.041318 -0.364227 -0.441369 -0.122961 -0.271548 -1.079798 -1.360726 -0.778193 0.258442 -0.664927 -0.490071 -1.417778 -0.576258 0.85758 0.96706 -0.837857 -0.480177 0.692293 -0.715751 0.934121 -0.306722 0.096616 0.666552 -0.009081 0.921059 -0.464642 -0.308226 -0.415126 -1.190562 -0.309167 1.100062 0.649524 0.26868 -0.313129 1.393042 -0.94962 -0.76814 0.432221 1.142364 -0.471408 0.891958 0.175692 -0.077005 -0.838764 -0.520868 -0.221112 -0.258692 -0.506159 -0.452244 -0.125877
24 -0.20504 0.731107 -0.821456 -1.003391 -0.013257 -0.739272 -0.732744 0.546166 -0.639893 -0.132674 0.001649 -0.650514 0.011624 0.004302 0.733995 -0.682752 -0.965324 0.769883 0.653257 -0.589729 -0.62259 0.847705 -0.103033 0.933575 -0.377808 -0.474193 -0.693983 -0.002147 -0.773546 -0.195065 0.353219 -0.350707 0.643131 0.43022 -0.659992 -0.13407 0.039019 -0.292419 -0.533601 -0.616078 -1.147184 -0.148691 -0.890651 0.073353 0.851705 -0.850093 0.13398 -0.210558 0.569511 -0.085353 0.424176 0.423188 1.077416 0.781516 0.374944 -0.778265 -0.412862 0.017839 -0.648353 -0.170824 0.530668 0.907087 -0.895359 0.58505 1.089191 -0.579379 0.430424 0.009963 0.091439 0.214712 0.420398 0.260571 -0.743519 0.154087 0.65427 -0.58428 -1.317495 0.402693 1.21554 0.382946 -0.834407 -1.343372 -0.714047 0.219304 0.121646 -1.378378 -0.160452 -0.453646 0.547677 -0.330004 -0.415844 -0.059009 0.529999 -0.262184 -0.946715 0.329491 0.649143 0.204782 0.135684 -0.512014 -0.948695 0.790558 0.46006 0.357284 0.375885 -0.857149 -0.743483 -0.130756 -0.316028 -0.449037 0.59442 -0.666154 0.070136 -0.293387 -0.149852 -0.507286 0.417513 1.073465 0.166917 -0.788479 -0.204837 0.372888 -0.206223 0.57275 0.352069 0.613049 0.433021 -0.021909
25 16.259111293333596 -16.126231639999983 -0.7495143466666699 -5.481515386666571 -16.955191466666903 14.65449176000022 10.058638239999862 -10.4127529866665 -11.887534680000172 -14.224848559999488 11.432281413333286 -9.566993853333441 14.47483010666673 -4.264271666666603 -6.795265066666748 -7.787389013333364 -11.064420426666697 -20.586870999999498 10.695023546666903 15.846358400000026 -3.1446996133334224 -0.056909626666679314 -14.654874853333327 10.331922546666975 6.797617413333624 -15.628791026666802 -6.824799040000054 -9.649104053333533 -1.4446091600000242 -18.38473589333339 -3.829389106666722 7.254630693333445 5.259057786666538 -9.482009253333313 1.649470519999944 -8.523199120000042 -13.643937986666632 8.747945520000053 -8.043024333333472 -17.56660421333339 0.24861074666670224 10.0465227199998 -8.346810506666788 -9.93284011999991 4.925132293333342 -3.8137209599999924 16.846520079999443 5.076834906666773 12.9309673999997 3.780895586666663 6.3124063466668066 10.211559413333127 -2.1539894133333504 10.815425533333553 4.071940426666681 8.642632026666837 10.302951733333462 16.12031934666709 -10.684006906666994 -7.06069319999986 3.9736045466666625 10.848311400000094 -8.923589533333631 -14.75665321333321 2.580697880000043 -9.478060693333072 -7.722241800000117 18.54973278666703 1.599526306666633 13.499026653333633 -11.84642748 11.277652160000201 10.67966591999956 5.140727800000119 -13.416089253333547 -8.69425143999998 0.39988761333331635 3.6694110666666395 4.945672919999988 2.3826099066666058 -6.310104839999998 0.32688749333335876 -12.56462664000012 9.606510359999744 -3.267827493333292 2.510780853333383 -10.91845946666653 -4.394948280000016 3.429081066666684 -6.447827173333238 -10.084709799999764 -12.066402986667017 9.626341853333189 -17.092307560000418 -9.838741266666855 10.376262186666821 -11.451323373333132 11.066277280000163 -15.736618119999914 -4.929744013333315 5.069347106666773 8.198730853333327 13.079075920000506 -18.00886140000027 11.682977866666684 -2.1443751200000527 -11.854906639999742 -15.134926920000042 -0.44485239999999704 6.964300746666776 -16.654379359999567 -12.114839226666355 -3.843432186666668 -9.8220744666665 -12.247313240000311 -7.185214306666565 -1.2794716800000283 10.060758653333341 -10.743312146666282 -10.832576146666844 -11.090922266666634 -11.31726363999965 -7.587109239999985 7.5431699333332745 -2.886714146666767 11.87948715999985 6.558446719999854 17.38541823999965
26 0.03531 0.68513 -0.918462 -0.980324 -0.16453 -0.620262 -0.634031 0.293847 -0.730108 -0.249892 0.162653 -0.803367 0.136245 0.053867 0.660746 -0.809907 -1.191427 0.547967 0.929177 -0.358666 -0.898164 0.958031 -0.294691 1.082966 -0.262753 -0.541328 -0.711639 -0.078135 -0.923444 -0.460238 0.272831 -0.267069 0.651106 0.163519 -0.719627 -0.216942 -0.14228 -0.214048 -0.787895 -0.900774 -1.123814 0.022333 -1.056764 -0.1943 0.964016 -0.851988 0.234876 -0.220576 0.753068 -0.070483 0.474516 0.620672 1.13974 1.11022 0.543765 -0.528179 -0.191122 0.240862 -0.801442 0.011059 0.596304 0.98793 -0.882834 0.492114 1.1042 -0.736515 0.641243 0.252206 0.286947 0.390151 0.295188 0.335891 -0.595682 0.218844 0.565088 -0.788273 -1.503557 0.420497 1.309697 0.500367 -0.970224 -1.35567 -0.989922 0.217327 -0.074359 -1.508203 -0.367628 -0.591591 0.556092 -0.565834 -0.54024 -0.06605 0.710644 -0.597171 -1.191559 0.601288 0.443191 0.384478 -0.002226 -0.570554 -0.878826 0.867145 0.784368 0.065277 0.464725 -0.828112 -0.954573 -0.376281 -0.345459 -0.271922 0.457878 -0.919795 0.121129 -0.652296 -0.415862 -0.584876 0.498999 1.219712 0.049925 -0.9509 -0.281436 0.207056 -0.449398 0.677398 0.276857 0.654412 0.50041 0.16741
27 0.168977 0.561207 -1.024707 -1.194201 -0.306961 -0.58134 -0.544481 0.333696 -0.942304 -0.372889 0.275896 -0.982832 0.30778 -0.007305 0.628379 -0.917274 -1.349774 0.350534 1.251652 -0.278154 -1.132537 1.138495 -0.45316 1.273897 -0.260045 -0.762347 -0.986049 -0.21586 -0.986081 -0.695449 0.162027 -0.187143 0.820757 0.157641 -0.78505 -0.30974 -0.285116 -0.121294 -0.911998 -1.206526 -1.199578 0.034906 -1.304299 -0.400661 1.170301 -1.010883 0.418415 -0.305566 0.976688 -0.11689 0.631264 0.747811 1.1817 1.375596 0.739176 -0.589886 -0.121391 0.483918 -1.042872 -0.039634 0.604373 1.267676 -1.16946 0.450249 1.327911 -0.921053 0.688132 0.454137 0.367318 0.557988 0.30168 0.432964 -0.518443 0.367066 0.488765 -0.908472 -1.623602 0.499481 1.512346 0.547025 -1.097858 -1.492478 -1.202201 0.311232 -0.07822 -1.573504 -0.508688 -0.645577 0.698312 -0.677001 -0.69763 -0.171728 0.860886 -0.857232 -1.363625 0.708675 0.40395 0.526059 -0.135494 -0.611886 -0.950978 1.028443 1.027827 -0.030433 0.604648 -0.938153 -1.192361 -0.594729 -0.377662 -0.243137 0.396695 -1.089763 0.08092 -0.867052 -0.600991 -0.705667 0.458759 1.447599 -0.028921 -1.249657 -0.444597 0.131065 -0.710399 0.797329 0.283869 0.761594 0.592025 0.329633
28 1.173634 -0.081573 0.179371 -0.286145 -0.560512 -0.269856 0.106995 -0.820425 -0.494119 -0.244193 0.54491 -0.949289 0.846272 -0.400929 -0.688078 -1.124476 -1.051967 -1.196693 1.085917 0.413668 -0.79809 0.248513 -1.262508 0.56177 0.916623 -0.370566 -0.363422 -0.187744 -0.366859 -1.482728 0.102076 1.023648 -0.239506 -0.688329 -0.458105 -0.514306 -0.519721 -0.197458 -0.637322 -1.43179 -0.094092 0.764858 -0.72497 -1.066165 0.279232 0.002046 0.531697 0.23401 1.061683 -0.488926 -0.144501 0.461749 0.10383 1.17281 1.048598 0.691149 0.622845 0.988164 -0.632833 0.563876 0.216204 0.424297 -0.33498 0.013212 0.555683 -0.369241 0.799947 1.267461 0.779616 0.109466 -0.463207 0.040471 0.663654 0.763836 -0.085656 -0.418049 -1.075303 -0.151913 0.615813 -0.050629 -0.531776 -0.410132 -0.872131 -0.193467 -1.005345 -0.818674 -0.373113 -0.859878 -0.11821 -1.26357 -1.059106 -0.034607 1.611106 -1.301345 -1.337243 1.081001 -0.86939 1.333928 -0.666053 -0.329499 0.399878 0.444958 1.363899 -0.936771 0.414081 -0.509893 -1.585469 -0.800212 0.564543 0.499731 -0.280471 -0.814536 0.598828 -1.062093 -1.204408 -0.253979 0.853297 0.55049 0.104166 -0.706707 -0.467019 -0.845069 -0.90585 0.251919 -0.302443 0.475338 0.014199 0.739768
29 0.399732 0.003058 0.945881 0.513724 0.324071 -0.085921 0.550064 -0.190741 0.4172 0.582762 -0.365095 0.015009 0.176155 -0.760335 -0.965927 0.217487 0.531231 -0.976209 0.139237 0.182831 -0.308057 -0.489386 -0.259341 -0.768877 0.403355 0.450126 0.207843 -0.264291 0.549019 -0.393311 -0.458443 1.020369 -0.551349 -0.065839 0.285532 0.309928 -0.028046 -0.427355 0.469741 -0.170046 1.119167 0.332945 0.099758 -1.006599 -0.831363 0.628165 -0.321697 -0.339241 -0.026305 -1.025624 -0.634531 -0.729498 -0.977155 0.366613 0.729018 0.380123 0.821933 0.763888 0.538243 0.628625 -0.675793 -0.719855 0.275016 0.202122 -0.079244 0.889335 0.598552 0.691148 0.87119 -0.64352 0.083952 -0.888264 0.718955 0.912706 -0.014145 0.783148 0.227925 -1.012882 -0.707682 -0.727795 0.853155 0.429083 0.370923 -0.69459 -0.568312 0.579867 0.153627 0.042526 -0.382729 -0.493615 -0.224723 0.149833 0.877962 -0.198227 -0.023992 -0.094909 -1.024156 0.533736 0.147255 0.832016 0.826601 -0.893961 0.515504 -0.158456 -0.591663 0.678643 -0.431205 0.043328 0.962495 0.068371 -0.025382 0.463154 0.234804 -0.313644 -0.684224 0.773201 0.104559 -0.451126 0.46192 0.023521 0.238534 -0.722313 -0.650642 -1.002711 -0.658213 -0.580987 -0.694319 -0.091789
30 0.732179 0.474807 0.076335 -0.311032 -0.039056 -0.882306 -0.342526 -0.440216 -0.266029 0.207048 0.218231 -0.828936 0.444108 -0.314047 -0.454453 -1.103311 -0.917917 -0.580525 1.040005 -0.192615 -0.9208 0.477529 -0.947982 0.430508 0.721054 -0.052892 -0.42285 0.06612 -0.439147 -1.130337 0.212983 0.853574 -0.279982 -0.349665 -0.653457 -0.314745 -0.16568 -0.477888 -0.49402 -1.198325 -0.285619 0.444606 -0.74373 -0.902813 0.388484 -0.059094 0.122882 0.038669 0.928367 -0.734138 -0.246694 0.276808 0.309485 1.083718 1.129051 0.333296 0.259716 0.617076 -0.521514 0.825528 0.13799 0.324825 -0.326823 0.630749 0.731966 -0.270048 1.225291 0.797186 0.823184 -0.300932 0.012864 -0.280041 0.30765 0.757469 0.426948 -0.247285 -1.361451 -0.229643 0.704661 -0.107291 -0.53847 -0.657963 -0.675194 -0.451927 -0.973375 -1.12063 -0.09508 -0.862216 -0.141928 -1.290335 -0.915095 0.343064 1.51656 -0.955099 -1.220987 0.826547 -0.458983 1.138413 -0.20214 -0.260446 0.12669 0.397571 1.188877 -0.354858 0.15484 -0.630128 -1.520429 -0.460628 0.596271 0.279967 0.361053 -0.580033 0.795329 -0.942336 -0.966325 -0.13256 1.002878 0.468849 0.503305 -0.62358 -0.224881 -0.484552 -0.884816 0.156716 -0.142776 0.170124 -0.147548 0.22814
31 0.732103 0.785151 0.530643 0.172092 0.397407 -1.218304 -0.421058 -0.681364 0.265933 0.694084 0.018853 -0.529 0.245282 -0.449064 -0.743952 -1.079157 -0.644957 -0.595177 0.518207 -0.406199 -0.453453 -0.039035 -0.8081 -0.121536 0.915637 0.552846 0.218281 0.431747 -0.238425 -0.950794 0.618204 1.174438 -0.855533 -0.45297 -0.58077 -0.096072 0.289388 -0.848021 -0.230524 -0.78158 0.095039 0.522672 -0.200806 -0.633399 -0.090156 0.322297 -0.326214 0.305262 0.581691 -0.943115 -0.884145 -0.072044 -0.002204 0.570429 0.989008 0.589645 0.156848 0.16612 0.017393 1.091534 0.068344 -0.339823 0.319715 0.749167 0.263954 0.21697 1.297522 0.576795 0.764415 -0.845191 -0.001281 -0.822156 0.258659 0.644279 0.630315 0.190587 -1.147372 -0.588813 0.262957 -0.38811 -0.2314 -0.175364 -0.155153 -0.780657 -1.232958 -0.994465 0.34617 -0.948483 -0.666633 -1.264795 -0.769905 0.692504 1.693783 -0.595741 -1.023171 0.721916 -0.541827 1.197743 0.09188 -0.160518 0.565214 -0.045354 0.83441 -0.194828 -0.238716 -0.545241 -1.302276 -0.012347 0.92814 0.333736 0.526839 -0.133257 1.022635 -0.613605 -0.743188 0.131 1.369781 -0.184588 0.785033 0.048052 0.081776 -0.432251 -0.470128 -0.21235 -0.231671 -0.032181 -0.569648 -0.091383
32 0.054441 0.633643 0.729578 0.42144 0.855453 -0.700631 -0.042922 0.003357 0.680134 0.90922 -0.580913 0.193033 -0.240713 -0.563414 -0.571199 0.078626 0.47883 -0.219484 -0.12534 -0.417332 -0.14447 -0.412225 0.064572 -0.837042 0.270699 0.825382 0.377588 0.227495 0.332812 0.019089 0.103518 0.771248 -0.691734 0.111658 0.016393 0.472409 0.511649 -0.714456 0.485726 0.185746 0.749197 0.073245 0.259491 -0.404382 -0.705313 0.487373 -0.714406 -0.167338 -0.219337 -1.052322 -0.850261 -0.752747 -0.534328 0.008709 0.591227 0.132634 0.290936 0.037218 0.668193 0.692072 -0.459841 -0.810809 0.412678 0.687437 -0.14413 0.882071 0.782187 0.081811 0.541601 -1.005024 0.40635 -1.10907 0.201977 0.551281 0.465158 0.840673 -0.138542 -0.884369 -0.511916 -0.606839 0.631979 0.246884 0.585799 -0.802075 -0.557424 0.101647 0.557966 -0.123562 -0.594826 -0.44346 -0.048952 0.47864 0.797021 0.23528 -0.005305 -0.237271 -0.3922 0.313324 0.594264 0.555285 0.512583 -0.78904 0.153972 0.366484 -0.746741 0.320952 -0.24451 0.54003 0.8664 -0.101294 0.570023 0.679587 0.394477 -0.029222 -0.219223 0.677272 0.434168 -0.648647 0.778776 0.377425 0.439166 -0.189003 -0.264686 -0.933812 -0.364218 -0.655891 -0.813116 -0.504518
33 -0.857868 0.923713 -0.292881 -0.020867 1.135374 -0.658123 -0.664635 0.774836 0.56119 0.681674 -0.623894 0.76734 -0.995557 0.153184 0.791429 0.503433 0.4845 1.392403 -0.823865 -0.960368 0.690324 -0.230236 1.197902 -0.513987 -0.791839 0.66173 0.443225 0.726953 -0.030182 1.245406 0.781574 -0.712854 -0.016971 0.630793 -0.035913 0.674633 1.139876 -0.325241 0.376749 1.151469 -0.224769 -0.719768 0.652705 1.146947 -0.110441 -0.310706 -0.889576 0.067903 -0.856769 -0.02186 -0.438123 -0.411332 0.489208 -1.051978 -0.586669 -0.774835 -0.833064 -1.440238 0.690871 -0.284322 0.20435 -0.415099 0.218647 0.537584 -0.428319 0.382473 -0.153349 -1.268756 -0.818515 -0.575828 0.733405 -0.574154 -1.002543 -0.790176 0.688583 0.483074 0.181968 0.070437 -0.077554 0.125772 0.203075 0.162948 0.881183 -0.017462 0.575658 -0.110564 0.777717 0.161366 -0.325176 0.748114 0.833247 0.371234 -0.711257 1.234537 0.690802 -0.703227 1.187371 -0.924855 1.116913 -0.137072 -0.600371 -0.264097 -1.13161 1.235795 -0.577381 -0.146697 1.079495 1.172521 -0.384335 -0.558574 0.960752 0.940831 -0.302854 0.995416 1.081754 0.136568 -0.065727 -0.588824 0.400859 0.823474 0.541782 1.12939 0.89746 -0.240583 0.483313 -0.291108 -0.43355 -0.866258
34 0.467323 1.092814 1.419164 1.37672 1.176874 -1.366987 -0.416116 -1.157406 1.435488 1.480985 -0.376479 0.430141 -0.319435 -0.4557 -1.205459 -0.624384 0.275615 -0.468663 -0.961531 -0.665774 0.885781 -1.31003 -0.18403 -1.399386 1.105227 1.823624 1.773181 1.131375 0.333939 -0.136437 1.259781 1.445177 -1.943257 -0.670171 -0.119018 0.408882 1.163646 -1.304868 0.420361 0.579228 0.989505 0.570734 1.200897 0.240349 -1.228332 1.198867 -1.222721 0.874156 -0.49262 -0.959647 -2.053708 -0.834485 -0.775678 -0.928392 0.193046 1.131327 -0.100948 -0.94889 1.29799 1.405777 -0.119557 -1.880443 1.88363 0.633754 -1.08258 1.249825 0.948703 -0.123465 0.340532 -1.793645 -0.132454 -1.682813 0.153873 0.048866 0.754811 1.08571 -0.087009 -1.172341 -0.951116 -0.90314 0.581077 1.160959 1.128918 -1.244245 -1.415223 -0.231607 1.219933 -0.726207 -1.676097 -0.747281 -0.068234 1.232657 1.353719 0.440301 -0.05718 0.245982 -0.643346 0.830334 0.681361 0.166031 1.468443 -1.048482 -0.335413 0.135013 -1.073776 -0.045082 -0.226466 0.981225 1.348212 0.367459 0.590881 0.967698 1.171053 0.344792 0.07577 0.737228 1.666959 -1.758297 1.105451 1.699737 0.762729 -0.210166 0.721822 -0.992968 -0.359828 -0.525457 -1.331055 -0.731639
35 0.34472 1.150634 1.846692 1.949872 1.560313 -1.33461 -0.324357 -1.38326 1.985878 1.803519 -0.58239 0.961488 -0.533776 -0.526977 -1.436946 -0.282118 0.812541 -0.494339 -1.80146 -0.726849 1.712713 -2.077136 0.239875 -2.080358 1.116163 2.432317 2.646414 1.409241 0.661596 0.301634 1.579959 1.584613 -2.428924 -0.743751 0.184335 0.683998 1.654983 -1.449019 0.748394 1.354087 1.46888 0.630982 1.966273 0.762967 -1.847894 1.527063 -1.655064 1.18257 -1.098061 -0.901898 -2.616154 -1.259264 -1.247891 -1.781014 -0.324711 1.336228 -0.273326 -1.536422 2.0191 1.383319 -0.169539 -2.663949 2.623649 0.380247 -1.800574 1.804692 0.511828 -0.425679 0.000483 -2.213887 -0.268503 -2.127908 0.053112 -0.300054 0.727899 1.573936 0.579514 -1.43883 -1.590832 -1.174047 1.044896 1.891247 1.810441 -1.361353 -1.380753 0.271049 1.654869 -0.603966 -2.155397 -0.343737 0.365565 1.377416 1.157403 1.047401 0.481619 -0.080026 -0.713183 0.599089 1.004879 0.333085 1.929084 -1.591035 -1.052786 0.30352 -1.495444 0.230415 0.406132 1.531055 1.530711 0.291771 0.519263 1.579128 1.060241 0.947993 0.561224 1.028486 1.743074 -2.575282 1.150278 2.54268 1.046756 -0.089748 1.418928 -1.429864 -0.386107 -0.659415 -1.690369 -0.997408
36 0.209898 1.004958 1.748584 1.833368 1.561557 -1.146245 -0.189479 -1.147157 1.872662 1.726462 -0.695215 1.056774 -0.562422 -0.551406 -1.343473 -0.005285 0.980005 -0.44942 -1.7529 -0.638993 1.686364 -2.027183 0.469743 -2.09767 0.873098 2.335493 2.504128 1.203525 0.765314 0.44711 1.329188 1.416555 -2.238247 -0.629207 0.306006 0.761138 1.625528 -1.26882 0.792614 1.483451 1.474836 0.496118 1.888152 0.769812 -1.842348 1.381405 -1.632909 0.977099 -1.213564 -0.874027 -2.460625 -1.36029 -1.307622 -1.781621 -0.376033 1.076078 -0.277846 -1.450257 2.006415 1.248273 -0.24807 -2.581134 2.376181 0.327701 -1.740547 1.816549 0.421488 -0.455095 -0.039261 -2.12044 -0.16383 -2.087626 -0.017645 -0.284211 0.659856 1.6251 0.737811 -1.365081 -1.581145 -1.17896 1.176835 1.837736 1.820979 -1.2453 -1.086899 0.446625 1.540048 -0.387719 -2.003053 -0.173243 0.550281 1.247611 0.975512 1.141284 0.682481 -0.294221 -0.65468 0.366824 1.105031 0.502244 1.755665 -1.621965 -1.136016 0.417232 -1.569924 0.398904 0.573497 1.496074 1.406384 0.083199 0.531795 1.650674 0.782992 1.007754 0.574373 1.066648 1.436026 -2.464799 1.058261 2.342764 1.036458 0.002635 1.343833 -1.487859 -0.383269 -0.681648 -1.679897 -0.95076
37 0.030787 0.839677 0.41639 0.489999 0.889431 -0.745971 -0.611711 -0.507364 0.948371 0.717225 -0.294624 0.505709 -0.480867 0.023058 -0.11804 -0.315606 0.176712 0.406392 -0.934834 -0.594365 0.850275 -0.760397 0.23656 -0.688592 0.430291 1.050467 1.026025 1.014239 0.057407 0.398012 1.177682 0.326322 -1.016435 -0.263706 -0.102073 0.316812 0.969944 -0.652297 0.239911 0.703994 0.152186 0.112831 0.907967 0.866584 -0.556211 0.439666 -0.75782 0.813789 -0.467942 -0.256929 -1.099801 -0.260579 0.092617 -0.972244 -0.255617 0.460451 -0.452475 -1.169814 0.724704 0.430972 0.228058 -0.944946 1.08734 0.405037 -0.917576 0.490265 0.108765 -0.608174 -0.475462 -1.019722 0.056363 -0.766562 -0.229444 -0.593354 0.456045 0.509536 -0.129044 -0.277209 -0.352515 -0.181649 0.102921 0.630455 0.757771 -0.456492 -0.578084 -0.272996 0.959836 -0.474445 -1.034916 -0.162355 0.178151 0.565398 0.385443 0.670257 0.103563 -0.035627 0.256538 0.061492 0.584758 -0.309828 0.443478 -0.302795 -0.612098 0.28558 -0.475918 -0.279377 0.289105 1.011506 0.446481 0.103361 0.472036 0.716221 0.493248 0.563156 0.594762 0.194451 0.880582 -1.132572 0.664884 1.317589 0.454111 0.410839 0.921603 -0.355164 0.166013 -0.28739 -0.63906 -0.498383
38 -1.145329 0.807409 -0.494208 0.110273 1.099858 -0.451761 -0.713648 0.827624 0.608245 0.577439 -0.543922 1.005796 -1.161855 0.462798 1.033684 0.678272 0.575471 1.698695 -1.116106 -1.001635 0.950381 -0.256336 1.474457 -0.49806 -0.975653 0.696762 0.618381 0.784306 -0.063916 1.582933 0.776648 -1.105741 0.090798 0.624209 0.057999 0.703154 1.196254 -0.128107 0.410886 1.494105 -0.353605 -0.888364 0.822575 1.49885 -0.018916 -0.35416 -0.907658 0.131717 -1.081635 0.352137 -0.289574 -0.319437 0.545885 -1.451303 -0.99644 -0.825725 -1.057572 -1.804051 0.73326 -0.438416 0.283691 -0.419783 0.395184 0.415231 -0.673892 0.256766 -0.373451 -1.600657 -1.090256 -0.422283 0.71782 -0.347044 -1.169299 -1.146525 0.622329 0.391499 0.482934 0.287539 -0.162773 0.236464 0.117986 0.338092 1.007805 0.18163 0.878166 0.065051 0.778655 0.366926 -0.295663 1.077347 1.132267 0.380708 -1.303916 1.464475 1.074088 -0.858281 1.475772 -1.294007 1.170886 -0.235096 -0.741157 -0.190542 -1.53195 1.340194 -0.539539 -0.077143 1.514984 1.217266 -0.695989 -0.611616 0.922784 1.008505 -0.439527 1.217361 1.425032 0.03414 -0.267945 -0.690619 0.209835 1.045712 0.55899 1.369196 1.225384 -0.064549 0.639664 -0.303674 -0.344111 -0.916532
39 -0.784129 1.172109 -1.139732 -0.530249 0.898869 -0.754985 -1.558966 0.139429 0.54853 0.118545 -0.013608 0.90805 -1.144792 1.015185 1.70601 -0.42398 -0.427429 2.334159 -1.7147 -1.215272 2.009374 -0.475932 1.283113 0.213417 -0.702752 0.472806 0.986517 1.848813 -0.700582 1.54195 2.596266 -1.505339 -0.108393 0.195431 -0.44419 0.190288 1.695528 -0.20654 -0.266843 1.56296 -1.614458 -0.693746 1.275329 3.138858 0.592728 -0.843046 -0.618759 1.560042 -0.892023 1.296586 -0.468089 0.668441 1.858871 -2.194393 -1.807156 -0.552862 -2.112489 -3.161812 0.319151 -1.098157 1.510613 -0.042095 0.683695 -0.04331 -1.116861 -0.616747 -1.410163 -2.153522 -2.541882 -0.18657 0.21521 0.26579 -1.804072 -2.54505 0.658276 -0.362323 -0.215264 1.306275 0.730674 1.004656 -1.003839 0.273819 0.71249 0.858537 0.688195 -1.076535 1.197079 -0.574335 -0.633748 1.124483 0.905872 0.25276 -1.112677 1.650529 0.396312 -0.155135 2.383255 -1.100802 0.852152 -1.832351 -1.049292 0.915608 -2.092543 1.031959 0.200212 -1.536853 1.572894 1.71791 -1.319297 -0.278162 0.753864 0.595824 -0.300127 1.744953 2.273515 -0.974748 0.697612 -0.779066 0.017561 1.828975 0.340797 2.131278 2.61453 1.060938 1.428849 0.75305 0.223205 -0.603055
40 -0.869319 0.960051 -0.832674 -0.066029 0.87686 -0.525861 -1.261463 0.118531 0.620649 0.22464 -0.097442 0.912604 -1.108 0.957581 1.333979 -0.075042 -0.062713 2.00096 -1.516244 -1.042815 1.566005 -0.363007 1.192922 -0.063423 -0.588315 0.643647 0.977301 1.424699 -0.460853 1.514865 1.771517 -1.329459 -0.177769 0.157383 -0.227758 0.328854 1.304426 -0.080192 -0.095155 1.493822 -1.050796 -0.573467 1.140865 2.380132 0.273175 -0.430937 -0.70475 1.054699 -0.931368 1.089709 -0.385953 0.358743 1.277653 -1.841983 -1.510568 -0.394157 -1.586849 -2.481745 0.476753 -0.580427 1.012231 -0.317307 0.836365 0.066243 -1.06413 -0.29876 -0.943724 -1.870003 -1.853415 -0.256854 0.198459 0.126286 -1.401076 -1.992805 0.559461 -0.181403 0.104569 0.91193 0.243522 0.715159 -0.610036 0.364322 0.766293 0.472303 0.598595 -0.590165 0.966186 -0.272814 -0.511875 0.974519 0.923453 0.359773 -1.230081 1.446122 0.670634 -0.302078 1.808392 -1.116366 0.815046 -1.170233 -0.747693 0.503218 -1.769568 0.91647 -0.043376 -0.897942 1.480928 1.402882 -0.961107 -0.244367 0.636106 0.627612 -0.173375 1.404796 1.817821 -0.514342 0.367697 -0.834477 0.09141 1.597111 0.388779 1.618657 2.076701 0.644967 1.087148 0.262372 0.051175 -0.701822
41 -0.606789 0.669876 -0.93701 -0.446907 0.500729 -0.274007 -0.98897 0.141907 0.316304 -0.074063 0.071279 0.746994 -0.798456 0.755421 1.346775 -0.205498 -0.304331 1.704936 -1.432278 -0.758521 1.737725 -0.448946 1.072798 0.247846 -0.709581 0.141523 0.733089 1.285341 -0.469191 1.221787 1.923359 -1.274611 0.103996 0.142533 -0.170813 0.10631 1.222112 -0.02051 -0.194886 1.273079 -1.266603 -0.558725 1.032944 2.505264 0.496421 -0.749651 -0.324042 1.222544 -0.735912 1.180367 -0.255002 0.603775 1.367669 -1.792981 -1.604638 -0.484913 -1.618564 -2.410055 0.201896 -1.096523 1.185904 0.051718 0.467231 -0.340837 -0.933846 -0.556037 -1.44431 -1.614103 -2.095241 0.093099 0.072528 0.37829 -1.421741 -2.054348 0.338645 -0.322781 0.100228 1.107497 0.553806 0.808628 -0.736228 0.342536 0.539165 0.909273 0.754441 -0.627229 0.826932 -0.329751 -0.36552 1.091549 0.761913 -0.018183 -1.015299 1.295095 0.409237 -0.13487 1.813623 -0.928257 0.54938 -1.434989 -0.820238 0.751486 -1.741817 0.703441 0.250967 -1.115624 1.39412 1.249994 -1.207393 -0.269558 0.333905 0.414801 -0.471729 1.444733 1.806159 -0.853435 0.334176 -0.520134 -0.221849 1.374177 0.215525 1.689188 2.146175 0.920168 1.087177 0.763672 0.296093 -0.302125
42 0.356354 0.690108 1.55619 1.57906 1.313768 -0.862379 -0.107415 -1.065558 1.610053 1.405136 -0.672789 1.012879 -0.446315 -0.496116 -1.285481 -0.005268 0.917935 -0.548658 -1.382859 -0.355195 1.398495 -1.698108 0.341602 -1.889433 0.879244 1.953677 2.015381 0.941418 0.831778 0.275562 0.949217 1.2664 -2.003968 -0.641544 0.374741 0.67366 1.286439 -0.901388 0.701749 1.217232 1.340371 0.499709 1.592904 0.56401 -1.653796 1.280086 -1.298822 0.862126 -1.038529 -0.782838 -2.135147 -1.173335 -1.254821 -1.490499 -0.211773 0.973848 -0.11514 -1.121484 1.606507 1.233842 -0.317167 -2.268088 1.930604 0.393983 -1.566885 1.558782 0.522134 -0.337703 -0.035548 -1.891122 -0.138155 -1.807497 0.184743 -0.151764 0.45899 1.484603 0.658467 -1.16978 -1.392936 -1.099748 1.120971 1.647979 1.568773 -1.178794 -0.931764 0.534228 1.273755 -0.321679 -1.802425 -0.334856 0.479404 1.022956 0.930611 0.950659 0.65708 -0.304632 -0.679858 0.327638 0.929498 0.545435 1.614361 -1.390973 -0.864633 0.213945 -1.39715 0.447501 0.428237 1.154304 1.330649 0.127453 0.435565 1.451799 0.681438 0.747781 0.297022 0.99563 1.110773 -2.148219 0.998216 1.86075 0.820414 -0.030489 1.023106 -1.321661 -0.375474 -0.714638 -1.553669 -0.684587
43 0.028043 1.118296 1.581666 1.395216 1.759969 -1.324721 -0.154516 -0.549369 1.638197 1.826119 -1.009809 0.943746 -0.608856 -0.764645 -1.195182 0.267837 1.085816 -0.309014 -1.237331 -0.737286 1.118139 -1.581169 0.669827 -1.999864 0.519088 2.139841 1.900879 0.86492 0.813128 0.451153 0.880144 1.308999 -1.881954 -0.253289 0.262865 0.939154 1.575753 -1.181507 0.838105 1.298638 1.391485 0.21838 1.434081 0.454362 -1.677514 1.063074 -1.637084 0.395502 -1.127545 -1.230352 -2.197251 -1.510352 -1.249384 -1.288525 0.022749 0.432872 -0.230807 -1.080773 1.785829 1.212452 -0.472058 -2.276026 1.657282 0.724963 -1.182169 1.825393 0.815739 -0.426802 0.181862 -2.115856 0.267779 -2.269266 -0.175566 0.085604 0.871282 1.787588 0.429155 -1.388302 -1.304089 -1.20986 1.3314 1.321332 1.67737 -1.309477 -0.776407 0.358594 1.348508 -0.27075 -1.689199 -0.236225 0.535392 1.178532 1.130452 1.137299 0.587594 -0.543971 -0.502311 0.235718 1.349937 0.825543 1.333881 -1.613346 -0.871392 0.745037 -1.707885 0.525728 0.376437 1.372914 1.399886 -0.246567 0.9545 1.627619 0.581007 0.812397 0.316396 1.162168 1.100319 -2.003673 1.17524 1.644029 0.997962 0.172658 0.795906 -1.630129 -0.390109 -0.836966 -1.739727 -1.031024
44 -9.446328533333114 8.179644999999894 -8.56397061333317 -9.004996559999695 6.948145880000027 -6.0356857733332845 -5.459802240000122 13.056245973333379 -1.8049459066666795 3.5013793600000302 -5.144468799999902 1.8240145733333306 -6.639205693333138 -0.5559492666666717 11.796547026667021 4.078208986666556 0.0669385466666832 14.251783760000118 -1.7226708399999837 -8.677776506666383 1.474654026666604 4.148341146666516 10.635102973333298 2.7168636266667914 -12.437065880000048 -1.9188912266667 -4.682080173333386 2.622035293333416 -2.772167493333361 8.959299360000049 5.8377929333334295 -9.372242853332978 7.355857920000056 9.612481186666914 -3.1345123333332756 3.1425456400000664 8.450473453333498 -2.2784383599999654 1.5888640266666858 5.639221626666478 -8.93012206666651 -9.962662479999908 -1.3525305066666815 10.252844493333228 6.055341320000143 -10.496864586666822 -3.9994965466665815 -3.675083413333279 -3.4672075466666676 -0.2045418266666752 3.325173466666758 -0.5469123466666791 8.871399266666478 -3.4531605199999276 -3.583301493333402 -14.521775333333329 -10.40402509333302 -9.915256026666837 -0.6483977466666704 -8.992234586666914 2.859437133333335 5.713270546666809 -8.756156493333553 4.46254588000009 4.9630444800000015 -2.2043510400000237 -2.84518194666665 -10.432331253333148 -7.391189613333285 0.48782531999997025 9.271099853333197 -1.0164633733333366 -12.887228893333054 -5.014357266666514 6.794334120000178 0.9831265466666674 -3.274337386666637 4.569629453333205 7.370213413333499 4.203655213333255 -1.6981515199999992 -7.125792853333373 1.9497103600000476 4.757844786666519 9.931444346666689 -5.195068760000063 3.007974866666753 2.3293555066666927 4.384884746666698 8.72723171999988 4.870512480000012 0.09593681333333531 -5.8946152799998215 8.295543186666732 1.6817856000000249 -5.484373186666622 15.459499799999872 -7.6747881333334815 8.308141506666662 -3.327227773333342 -13.045449853333363 2.8612971733333836 -7.692227853333209 12.39239781333349 -1.5979918533333355 -5.582358133333201 6.61743764000019 7.361861680000105 -9.448950613333402 -7.562233959999997 9.43630745333355 2.8812364000000112 -6.0129481466665995 7.156104746666774 9.512867626666775 -3.507566186666554 -2.5701357066666315 4.501742146666701 0.5757208666666762 -1.684965426666659 2.719655813333375 12.973571439999974 4.220903773333337 2.8005598799999376 5.69417941333319 2.566372893333361 1.261329146666662 -5.950933120000122
45 -1.670444 1.494618 -0.672349 -1.520782 1.415544 -1.439611 -0.276261 2.94311 -0.626847 1.16566 -1.54627 -0.504733 -0.775544 -0.985671 0.991993 1.209276 0.516332 1.464132 1.534118 -1.443938 -2.148959 1.686483 1.339359 0.240649 -2.03831 -0.241522 -1.949386 -1.071064 -0.150122 0.685028 -1.364046 -0.548014 1.491439 2.137595 -0.470109 0.902746 0.445119 -0.561649 0.536216 -0.264439 -0.346633 -1.604753 -1.795007 -0.954604 0.683034 -1.383165 -0.762708 -2.711624 0.088145 -1.801811 0.897028 -1.031486 0.360502 1.726382 1.428867 -2.968989 -0.283052 0.915436 -0.286265 -0.206776 -0.910119 1.037961 -2.519047 1.881332 2.492018 0.411018 1.693384 -0.466282 1.19735 -0.351482 2.278247 -1.103806 -1.463675 1.512858 1.548155 0.8175 -1.261292 -0.493844 0.999047 -0.189909 0.609029 -2.349778 -0.226505 -0.303752 1.233687 -0.679698 -0.341434 0.757812 1.415053 0.295667 0.207948 0.218323 0.236205 0.377811 -0.241942 -1.29695 1.175461 -0.826819 1.538178 1.429049 -2.023867 -0.330625 0.60397 2.237224 -0.949375 0.414408 -0.403963 0.190373 -0.220001 -1.720898 2.271197 0.200906 -0.674049 -0.326617 -0.304774 0.552202 -0.953267 1.752422 0.752122 -2.264253 0.39019 0.987809 -1.848864 -0.812333 0.021968 -0.665762 -0.304785 -1.288199
46 -41.52245054666644 45.70718675999896 -4.691345453333308 -32.291644786666424 45.254052706665824 -49.7232373600007 -3.915743853333293 75.77975829333394 -10.347395973333656 44.212596720000114 -48.34217262666635 -18.12714954666639 -18.618257626666466 -35.83727314666697 10.592051693333342 31.725754026667197 18.697943840000246 27.434479506666943 50.284900493332024 -40.93992523999927 -72.67164174666736 45.92274356000044 28.99380091999987 -3.6248466800001578 -44.96464619999965 5.391387146666972 -51.50331955999937 -32.50809934666762 1.5879130266666248 9.92267573333321 -48.50864273333381 2.5868393733332833 28.60336496000025 55.836630880000634 -14.450725373333325 28.322336253333205 10.164489666666979 -23.700155546666686 19.072309813333533 -13.590419053333669 5.289768399999875 -38.48547596000019 -53.107750213332444 -46.513064933334164 7.906221679999759 -25.74926529333298 -28.323285253333786 -84.33697005333275 5.341697373333889 -68.3935067466666 15.157653493332958 -39.938504480000404 -4.312149453333286 59.639273706665456 57.252538573334306 -75.23776486666681 3.2730321733334673 40.57330963999974 -3.209727760000038 14.38110497333296 -37.637967973332906 16.919774933333603 -62.78406081333412 63.75736674666564 73.46969897333256 23.323920906666995 69.46592082666808 -1.8961949866664844 53.91059395999994 -23.90648798666697 65.8302557199989 -45.884347973332964 -28.07324589333339 60.1884252266662 48.16886162666708 33.23030494666713 -41.05790277333341 -29.033132000000194 19.773380706666835 -17.676495893333193 26.13121741333351 -65.92011164000166 -4.05735293333352 -26.329487533333076 19.626138733333462 -17.61929157333328 -7.961659493332897 18.828368399999903 33.11546577333383 -7.2555683866666145 -1.4164987066667138 15.83350577333354 23.560693653333363 2.934608546666704 -11.21154309333315 -33.7182457733333 16.029268119999923 -11.199567920000165 44.86426115999946 54.10806806666612 -43.60583961333275 -20.59746892000008 31.08709559999939 59.494780039999846 -36.749744680000205 20.021558399999574 -26.39032329333289 1.7018977733330036 12.291419946666526 -45.13971797333291 67.69443369333274 8.55662356000023 -5.530285906666547 -20.299138840000243 -22.89281077333301 27.58259645333326 -18.004266453333273 42.68037870666641 32.307477066667325 -65.9431620933321 14.390475760000122 13.642180333333116 -67.66469648000198 -37.644884559999426 -9.33515395999996 -31.645798813333162 -19.015776759999415 -39.43208853333281
47 -0.708278 0.533276 -0.217641 -0.524846 0.533078 -0.496728 0.077895 1.346739 -0.388543 0.543484 -0.707173 -0.407642 -0.202606 -0.63755 0.307013 0.702837 0.314184 0.33811 0.958104 -0.469048 -1.357851 0.927161 0.368297 0.05539 -0.818287 -0.178054 -1.070691 -0.808666 0.041896 0.133891 -1.02351 -0.061612 0.655855 0.939074 -0.242215 0.30722 -0.024152 -0.232046 0.388057 -0.317552 0.088779 -0.667657 -1.047949 -0.893586 0.188356 -0.468456 -0.308907 -1.526324 0.167949 -1.034727 0.607472 -0.618411 -0.179138 1.10755 0.951282 -1.251841 0.135315 0.888717 -0.199692 0.070654 -0.733925 0.5147 -1.292738 0.923915 1.280775 0.245347 1.094511 0.022991 1.000409 -0.13617 1.021147 -0.48288 -0.349756 1.209639 0.575439 0.406499 -0.442688 -0.425922 0.292305 -0.187031 0.427089 -1.160027 -0.18933 -0.340429 0.45767 -0.042937 -0.30848 0.594374 0.814633 0.07579 -0.026381 0.168957 0.067496 -0.092804 -0.056152 -0.571266 0.302427 -0.188155 0.577042 0.927916 -0.837618 -0.341253 0.593909 0.873971 -0.489675 0.383214 -0.38417 -0.149659 -0.044449 -0.624698 0.892506 -0.001189 -0.189756 -0.39226 -0.387161 0.390277 -0.56282 0.866531 0.375816 -1.282593 0.183932 0.073676 -1.327189 -0.514717 -0.263674 -0.488614 -0.19837 -0.599864
48 -17.945202653333606 7.0549877866667865 -10.920409880000097 -9.131591333333342 9.902433253333635 -0.824360760000022 1.4156547866666407 27.82645256000083 -6.625977319999827 8.572147946666828 -12.531199199999946 0.6264026533333127 -8.238007626666695 -9.985294573333233 13.910072946666311 18.668506520000598 7.469794786666713 11.78092386666703 4.418166773333347 -7.285711333333358 -8.05009537333334 8.960901026666681 16.087422813333536 0.30514209333332365 -23.79575601333263 -5.450099093333375 -13.683190053333849 -10.898841199999632 2.1799846933332767 12.960054946666613 -8.864032773333316 -11.171934799999958 14.932853506666463 19.143349960000577 -2.2320212533333557 5.488073240000078 8.09721256000025 -1.7802600666666935 11.218291760000364 5.716843786666574 -2.5659212533333404 -17.485706719999648 -9.678123186666875 1.1053636666667186 4.388152000000081 -13.958699720000176 -6.669624320000156 -20.70685918666693 -5.123702786666558 -9.102904946666666 14.043067400000087 -11.36932278666687 -1.1881855466666595 3.732262213333287 2.480652506666674 -26.525650893333395 -7.62741098666652 -0.9419188933333309 0.5504865066666629 -12.030068800000096 -8.520207666666405 10.014691506666415 -22.18167805333277 7.9712617066667715 12.51895426666661 2.677964093333282 4.1436343466666115 -9.516241973333534 3.866372480000105 0.7087218399999865 18.48728333333381 -3.686284333333308 -12.182274346666645 10.569814146666534 5.685290106666851 6.90533102666654 5.6458949199998845 -2.6205051866666076 3.220013253333252 0.7760536400000111 7.511656226666482 -11.939006786666443 3.5600140666666085 3.4887740533334006 18.43573388000027 7.548353186666708 -1.3246412933333598 17.554785666666536 15.209190453332903 16.423264879999465 9.12432378666683 -0.9153274266666727 -14.17986958666671 8.07762645333354 10.726542679999646 -15.677184693332809 16.88528213333382 -10.747187453333558 14.648260240000006 9.982103626666946 -19.122675693333548 -4.949279906666575 -5.430901813333269 19.471842560000063 -8.512275333333374 4.006855853333283 9.017360453333689 5.2145301466665765 -14.341928573333622 -11.769918573333223 11.937809386666943 6.611006080000137 -12.495124226666984 6.54201683999999 8.20536066666643 3.2993453733332547 -15.523327800000283 10.913445320000111 1.2334644933333245 -12.629421426666399 6.41309001333326 10.962276373333637 -9.507677053333206 -3.8491166666667187 -0.6127722933333335 -4.181269479999846 -1.7289148133333065 -11.856332319999815
49 -9.561904533333113 8.042572999999894 -9.07271861333317 -9.672105559999695 6.411622880000027 -5.902845773333285 -5.406705240000122 13.631710973333378 -2.6087949066666796 3.0085693600000303 -5.026503799999902 1.0234375733333305 -6.332162693333138 -0.5888302666666716 12.112076026667022 4.029450986666556 -0.28756345333331684 14.274932760000118 -0.46406383999998346 -8.601970506666383 -0.0621069733333961 5.387059146666515 10.126762973333298 3.5432916266667918 -12.598125880000048 -2.7341792266666998 -5.999863173333386 1.840265293333416 -3.119851493333361 8.49219836000005 4.73081093333343 -9.550682853332978 8.215755920000056 10.024113186666913 -3.4432523333332754 2.8064936400000664 7.5395844533334975 -1.978879359999965 1.3622270266666858 4.623515626666478 -9.266294066666509 -10.119684479999908 -2.6621945066666814 9.104311493333228 6.715409320000143 -10.858967586666822 -3.4471785466665814 -4.655000413333279 -2.6585925466666676 -0.4613938266666753 4.439052466666758 -0.22880834666667915 9.141738266666477 -1.9723245199999275 -2.6968294933334023 -14.98479033333333 -9.92407609333302 -8.580323026666838 -1.5833097466666706 -8.980260586666914 2.544803133333335 6.769302546666809 -9.926133493333552 4.8354958800000905 6.243516480000001 -2.7850870400000236 -2.18458494666665 -9.939742253333147 -6.509725613333285 1.1117843199999702 9.552611853333197 -0.4078053733333365 -12.624141893333054 -4.086129266666514 6.730759120000178 0.45022454666666745 -3.990826386666637 4.721028453333205 7.981115413333499 4.471037213333255 -2.049306519999999 -8.403401853333374 1.0143473600000474 4.738443786666519 10.001162346666689 -5.480311760000062 2.2577198666667533 2.5252675066666925 5.379851746666698 8.36587971999988 4.333378480000012 -0.1540961866666647 -5.949168279999822 7.462621186666732 1.098725600000025 -5.339636186666622 15.403603799999871 -7.554368133333481 7.85646150666666 -3.0651567733333422 -13.732980853333363 3.294112173333384 -6.55933785333321 12.25710881333349 -1.1134518533333355 -5.516479133333201 5.788428640000191 6.503705680000105 -9.593398613333402 -7.579524959999997 9.46967245333355 2.0389024000000115 -5.927235146666599 6.199141746666774 8.805714626666775 -3.6398761866665534 -3.0591207066666315 5.732929146666701 0.5284688666666763 -3.122963426666659 2.2906848133333746 12.507895439999974 2.835680773333337 3.0579298799999375 5.59245341333319 2.474774893333361 1.8242441466666621 -5.785295120000122
50 -3.580856360000078 2.592206133333291 3.5819455866666434 1.1943591733333003 4.171223226666645 -2.847186946666617 3.855342200000017 7.7265499466667436 -0.5426792400000026 6.782700480000059 -6.425518666666482 -3.133868653333407 -0.1759972799999929 -7.658955426666961 -3.741296493333214 6.688609506666504 5.45282748000001 -3.2341601866665757 7.759183520000119 -1.3975752266666548 -12.435505346666472 5.071159960000059 0.08565358666665202 -3.7466563600001104 -2.6934679600000457 1.2744782933333139 -6.616806373333432 -8.247985200000082 3.640339253333384 -1.3814302266666902 -12.028747013333286 4.883043013333165 1.3178311599999923 5.443392999999979 -0.0741919199999992 3.0734296666666814 -2.152419333333404 -3.321394413333202 5.635813040000056 -3.6872713066666907 6.92454530666669 -2.652094773333346 -7.508978173333423 -13.391132919999661 -3.057603733333396 1.5076904133333136 -3.608416959999886 -13.430225959999765 1.4255102799999537 -11.979327826666449 2.321344039999981 -8.1291515333333 -7.98295461333336 10.337249519999824 10.810831066666507 -5.276546199999952 6.044879039999856 11.773516466666868 1.1371020800000358 5.6930049066667925 -10.245111720000155 -0.32027708000002786 -6.686778533333342 8.124396746666735 8.494784453333303 6.0387976399998236 12.47679978666653 4.262733280000093 14.012880426666694 -4.046046480000106 7.156898693333321 -6.832215693333256 2.882054933333376 14.803965453332994 3.173936720000028 6.353734706666689 -0.9705995333333659 -8.864482093333475 -2.978222266666705 -5.537923479999858 7.631112279999975 -5.759209506666773 0.034940413333331644 -7.03189805333354 -0.30155790666664084 3.8956095600000054 -2.5448392133333524 6.053670199999923 4.49180549333344 -2.3716009333332897 -1.51042415999995 2.618247346666723 3.3539393200000114 -2.930443199999943 0.7477020933333336 -4.602637813333327 -4.52344831999982 1.7426618800000857 3.8115532533333907 12.143992053333212 -0.7735251333333347 -7.482824280000011 7.5074198933334335 4.2693509333333255 -6.4615524533333515 7.602389239999841 -5.072365200000198 -2.6857483066665675 4.870315426666607 -3.0433848666666994 5.048800426666698 1.3597646933333531 1.1669606266666752 -5.713553879999978 -7.242552933333288 7.398436093333307 -4.285325826666667 3.8074471866666513 4.710250253333348 -9.549392893333295 2.708841853333263 -4.992487786666558 -14.292409906666371 -8.786735653333455 -6.271186693333458 -8.028160306666514 -4.66729630666658 -4.856808800000007
51 -1.18639 0.734178 -0.422293 -0.748497 0.917758 -0.441374 -0.029554 1.871602 -0.186731 0.688949 -1.011678 0.266398 -0.711888 -0.606883 0.76854 1.105129 0.649774 1.068421 0.126145 -0.780191 -0.281796 0.411372 1.372875 -0.122121 -1.631945 -0.143011 -0.746466 -0.480795 0.148457 0.942358 -0.420906 -0.647005 0.937635 1.381864 0.110666 0.694512 0.696743 -0.230266 0.621348 0.497777 -0.149315 -1.174995 -0.486743 0.254466 0.255231 -0.961842 -0.540239 -1.205137 -0.457118 -0.642437 0.432818 -0.711911 0.08658 0.09095 0.080392 -1.895607 -0.495474 -0.237553 0.233763 -0.71403 -0.371192 0.41857 -1.314321 0.620363 0.838728 0.391839 0.08997 -0.727567 -0.013241 -0.157979 1.32 -0.600975 -1.186038 0.30117 0.645322 0.689803 0.064039 -0.20321 0.270471 -0.08661 0.594505 -0.758048 0.351615 0.238782 1.223352 0.159037 0.064243 0.772518 0.678456 0.933679 0.680158 -0.17012 -0.467687 0.817173 0.500537 -1.189461 1.050215 -0.970577 1.150522 0.731257 -1.18585 -0.357874 -0.53739 1.54197 -0.678089 0.326692 0.679363 0.531948 -0.53137 -1.184626 1.14 0.614268 -0.967481 0.584135 0.486973 0.293189 -0.896936 0.651397 0.198727 -0.77141 0.407528 1.041431 -0.282464 -0.464487 0.152156 -0.193414 -0.214116 -0.816167
52 -0.117223 -0.410044 0.345409 0.362868 0.146938 0.859899 0.797927 0.391286 0.294465 0.171082 -0.371538 0.916164 -0.162032 -0.64942 -0.080662 1.089391 1.000091 -0.272463 -1.153377 0.408099 1.55076 -1.284085 0.962019 -0.733987 -0.784215 0.051227 0.70428 -0.1454 0.720596 0.770634 0.34274 -0.069778 0.055853 0.289721 0.919975 0.417314 0.751251 0.070283 0.817717 1.084898 0.688311 -0.331222 0.970291 0.933368 -0.724427 -0.156373 -0.226023 0.403937 -0.957764 0.245909 -0.330715 -0.63508 -0.825264 -1.343894 -1.038964 -0.323984 -0.204019 -0.864349 0.930409 -1.074148 -0.071271 -0.550559 0.180827 -0.927552 -1.020358 0.667574 -1.520568 -0.378035 -0.857562 -0.107619 -0.05321 -0.397898 -0.300456 -0.487328 -0.624586 0.796341 1.692152 -0.342053 -0.88505 -0.263295 0.982928 1.357225 0.978888 0.58543 0.843709 1.409638 0.384965 0.794409 -0.335854 1.386716 0.945848 -0.600041 -0.645487 0.956008 1.14108 -0.889491 0.143996 -0.668006 0.509872 0.234426 0.306601 -0.803818 -1.424304 0.313605 -0.45798 0.627177 1.461014 0.699288 -0.377525 -0.36337 -0.457016 1.052773 -1.209553 1.304223 0.860066 0.22008 -0.757353 -0.711215 -0.403955 0.85944 0.365066 0.487488 0.992711 -0.478386 -0.089609 0.217626 -0.385304 -0.080227
53 -0.811555 0.114074 -0.490226 -0.1866 0.445433 0.386304 0.1333 1.048246 -0.060804 0.284987 -0.473121 0.589128 -0.540838 -0.329821 0.776149 1.026137 0.537318 0.640176 -0.693099 -0.179872 0.839773 -0.337301 1.165756 -0.222782 -1.273401 -0.18332 0.019514 -0.151109 0.261499 1.029476 0.276229 -0.781887 0.540647 0.712367 0.248261 0.316087 0.817239 0.047049 0.640378 0.940661 -0.12124 -0.828475 0.329673 1.085396 0.00695 -0.679706 -0.331299 -0.200011 -0.745983 0.207987 0.36805 -0.45055 -0.084225 -0.917901 -0.816581 -1.062836 -0.75204 -0.984984 0.423647 -1.116246 -0.022962 0.150077 -0.553006 -0.293909 -0.294138 0.171589 -0.857636 -0.870025 -0.781983 0.095054 0.550169 -0.065172 -0.844283 -0.361995 -0.063978 0.398828 1.049471 0.100088 -0.157751 0.137932 0.416538 0.277954 0.62733 0.628075 1.180948 0.763036 0.280585 0.901499 0.341891 1.42752 0.908561 -0.289538 -1.139631 0.940192 1.030186 -0.901256 1.087553 -0.846101 0.757357 0.076313 -0.699653 -0.276161 -1.200988 0.904469 -0.399219 0.083067 1.290983 0.685588 -1.040993 -0.524669 0.201252 0.728277 -1.036308 1.111469 1.096814 -0.025355 -0.785661 -0.069731 -0.259244 0.259627 0.415456 0.9393 0.637031 -0.019701 0.176219 0.176831 -0.085307 -0.478813
54 1.301608 -1.362695 1.49296 1.367496 -0.713627 1.511511 1.575888 -1.356896 0.678832 -0.239339 0.300437 0.801634 0.749546 -0.735816 -1.58306 0.46743 1.038028 -2.083866 -1.237644 1.472235 1.880604 -2.186993 -0.285162 -1.143413 0.790956 0.338319 1.564386 -0.097473 1.102976 -0.307241 0.200382 1.235056 -0.998073 -0.946486 1.420604 0.076768 0.022926 0.201744 0.636612 0.588988 1.755125 0.915028 1.524116 0.095447 -1.6042 1.051796 0.237269 1.313288 -0.652433 0.324746 -1.149064 -0.491145 -1.817004 -1.291365 -0.837172 1.52141 0.886947 -0.05118 1.113852 -0.266907 -0.203122 -1.442045 1.542334 -1.714496 -1.874181 0.956108 -1.69368 0.835466 -0.43279 -0.28477 -1.313147 -0.492198 1.222736 -0.28335 -1.517803 0.830266 2.082661 -0.842447 -1.725843 -0.754102 1.257068 2.589624 0.925308 0.129813 -0.404553 1.9665 0.32148 0.273597 -1.223245 0.493885 0.337167 -0.716703 0.347378 0.135249 0.791118 -0.057138 -1.672201 0.335642 -0.509498 0.290301 2.048951 -1.166846 -0.820696 -1.291399 -0.205218 1.084209 0.783064 0.086611 0.777387 0.575613 -1.719045 0.88291 -0.589035 0.758404 -0.034244 0.462642 -0.186546 -1.582086 -0.537456 1.504348 0.055076 -0.882557 0.923655 -0.828899 -0.632049 0.148534 -0.586199 0.766605
55 1.301608 -1.362695 1.49296 1.367496 -0.713627 1.511511 1.575888 -1.356896 0.678832 -0.239339 0.300437 0.801634 0.749546 -0.735816 -1.58306 0.46743 1.038028 -2.083866 -1.237644 1.472235 1.880604 -2.186993 -0.285162 -1.143413 0.790956 0.338319 1.564386 -0.097473 1.102976 -0.307241 0.200382 1.235056 -0.998073 -0.946486 1.420604 0.076768 0.022926 0.201744 0.636612 0.588988 1.755125 0.915028 1.524116 0.095447 -1.6042 1.051797 0.237269 1.313288 -0.652433 0.324746 -1.149064 -0.491145 -1.817004 -1.291365 -0.837172 1.52141 0.886947 -0.05118 1.113852 -0.266907 -0.203122 -1.442045 1.542334 -1.714496 -1.874181 0.956108 -1.69368 0.835466 -0.43279 -0.28477 -1.313147 -0.492198 1.222736 -0.28335 -1.517803 0.830266 2.082661 -0.842447 -1.725843 -0.754102 1.257068 2.589624 0.925308 0.129813 -0.404553 1.9665 0.32148 0.273597 -1.223245 0.493885 0.337167 -0.716703 0.347378 0.135249 0.791118 -0.057138 -1.672201 0.335642 -0.509498 0.290301 2.048951 -1.166846 -0.820696 -1.291399 -0.205218 1.084209 0.783064 0.086611 0.777387 0.575613 -1.719045 0.88291 -0.589035 0.758404 -0.034244 0.462642 -0.186546 -1.582086 -0.537456 1.504348 0.055076 -0.882557 0.923655 -0.828899 -0.632049 0.148534 -0.586199 0.766605
56 1.561275 -1.459874 1.635671 1.427255 -0.885635 1.482764 1.649608 -1.611686 0.639847 -0.315694 0.422917 0.576193 0.972973 -0.751395 -1.850096 0.240511 0.914096 -2.408594 -0.958854 1.601345 1.564171 -2.08352 -0.663508 -1.086946 1.129884 0.337547 1.508344 -0.174952 1.068962 -0.652933 0.013562 1.514248 -1.113929 -1.122565 1.352755 -0.040913 -0.251949 0.187553 0.512629 0.271472 1.867812 1.159447 1.373913 -0.344623 -1.642811 1.242427 0.357694 1.272785 -0.410093 0.174773 -1.195357 -0.434267 -1.907648 -0.935833 -0.528234 1.806752 1.167972 0.349894 0.979362 0.036179 -0.285916 -1.461926 1.632485 -1.647565 -1.738115 0.930638 -1.40371 1.179583 -0.093599 -0.309974 -1.456959 -0.497259 1.559903 -0.020461 -1.552112 0.750211 1.84593 -0.947403 -1.709583 -0.836824 1.212128 2.532223 0.736408 -0.056793 -0.735804 1.860908 0.189751 0.110534 -1.254133 0.100582 0.053919 -0.653386 0.686012 -0.202772 0.5164 0.199202 -2.061045 0.638451 -0.744737 0.342869 2.277303 -1.140638 -0.406518 -1.604079 -0.107282 1.13342 0.357123 -0.15905 1.071922 0.754296 -1.839514 0.668288 -0.313428 0.389291 -0.407296 0.50889 -0.026623 -1.524152 -0.481768 1.365467 -0.067592 -1.234232 0.609387 -0.867855 -0.752717 0.06287 -0.594297 0.912851
